{"learner":{"attributes":{"scikit_learn":"{\"_estimator_type\": \"regressor\"}"},"feature_names":["weight_kg_m","length_m","quantity","raw_material_price_eur_kg","profile_ref_Anslagslist","profile_ref_Baslister","profile_ref_Bottenlist","profile_ref_Droppnäsa","profile_ref_F-profil","profile_ref_Fönsterbåge","profile_ref_Glashållare","profile_ref_Glaskil","profile_ref_H-profil","profile_ref_Hörnvinkel","profile_ref_J-profil","profile_ref_Karmlist","profile_ref_Karmprofil","profile_ref_Kopplingsprofil","profile_ref_L-profil","profile_ref_Ramlist","profile_ref_Sidoprofil","profile_ref_Spröjsprofil","profile_ref_Stödprofil","profile_ref_T-profil","profile_ref_Täckprofil","profile_ref_Tätningslist","profile_ref_U-profil","profile_ref_Ytterram","profile_ref_Z-profil","surface_treatment_Anodized","surface_treatment_Brushed Finish","surface_treatment_EN-AW-6063-T5","surface_treatment_None","surface_treatment_Powder Coated","alloy_EN-AW-6060","alloy_EN-AW-6063","alloy_EN-AW-6082","alloy_Rå"],"feature_types":["float","float","int","float","float","float","float","float","float","float","float","float","float","float","float","float","float","float","float","float","float","float","float","float","float","float","float","float","float","float","float","float","float","float","float","float","float","float"],"gradient_booster":{"model":{"gbtree_model_param":{"num_parallel_tree":"1","num_trees":"270"},"iteration_indptr":[0,1,2,3,4,5,6,7,8,9,10,11,12,13,14,15,16,17,18,19,20,21,22,23,24,25,26,27,28,29,30,31,32,33,34,35,36,37,38,39,40,41,42,43,44,45,46,47,48,49,50,51,52,53,54,55,56,57,58,59,60,61,62,63,64,65,66,67,68,69,70,71,72,73,74,75,76,77,78,79,80,81,82,83,84,85,86,87,88,89,90,91,92,93,94,95,96,97,98,99,100,101,102,103,104,105,106,107,108,109,110,111,112,113,114,115,116,117,118,119,120,121,122,123,124,125,126,127,128,129,130,131,132,133,134,135,136,137,138,139,140,141,142,143,144,145,146,147,148,149,150,151,152,153,154,155,156,157,158,159,160,161,162,163,164,165,166,167,168,169,170,171,172,173,174,175,176,177,178,179,180,181,182,183,184,185,186,187,188,189,190,191,192,193,194,195,196,197,198,199,200,201,202,203,204,205,206,207,208,209,210,211,212,213,214,215,216,217,218,219,220,221,222,223,224,225,226,227,228,229,230,231,232,233,234,235,236,237,238,239,240,241,242,243,244,245,246,247,248,249,250,251,252,253,254,255,256,257,258,259,260,261,262,263,264,265,266,267,268,269,270],"tree_info":[0,0,0,0,0,0,0,0,0,0,0,0,0,0,0,0,0,0,0,0,0,0,0,0,0,0,0,0,0,0,0,0,0,0,0,0,0,0,0,0,0,0,0,0,0,0,0,0,0,0,0,0,0,0,0,0,0,0,0,0,0,0,0,0,0,0,0,0,0,0,0,0,0,0,0,0,0,0,0,0,0,0,0,0,0,0,0,0,0,0,0,0,0,0,0,0,0,0,0,0,0,0,0,0,0,0,0,0,0,0,0,0,0,0,0,0,0,0,0,0,0,0,0,0,0,0,0,0,0,0,0,0,0,0,0,0,0,0,0,0,0,0,0,0,0,0,0,0,0,0,0,0,0,0,0,0,0,0,0,0,0,0,0,0,0,0,0,0,0,0,0,0,0,0,0,0,0,0,0,0,0,0,0,0,0,0,0,0,0,0,0,0,0,0,0,0,0,0,0,0,0,0,0,0,0,0,0,0,0,0,0,0,0,0,0,0,0,0,0,0,0,0,0,0,0,0,0,0,0,0,0,0,0,0,0,0,0,0,0,0,0,0,0,0,0,0,0,0,0,0,0,0,0,0,0,0,0,0,0,0,0,0,0,0,0,0,0,0,0,0],"trees":[{"base_weights":[-4.000251E-3,1.8680586E-2,-1.5693323E-1,-4.924504E-3,1.4515625E-1,2.86441E-3,-1.0929952E-1],"categories":[],"categories_nodes":[],"categories_segments":[],"categories_sizes":[],"default_left":[0,0,0,0,0,0,0],"id":0,"left_children":[1,3,-1,5,-1,-1,-1],"loss_changes":[1.4957873E1,1.3535823E1,0E0,7.001515E0,0E0,0E0,0E0],"parents":[2147483647,0,0,1,1,3,3],"right_children":[2,4,-1,6,-1,-1,-1],"split_conditions":[1E0,1E0,-1.5693323E-1,1E0,1.4515625E-1,2.86441E-3,-1.0929952E-1],"split_indices":[21,9,0,11,0,0,0],"split_type":[0,0,0,0,0,0,0],"sum_hessian":[1.033E3,9.96E2,3.7E1,9.55E2,4.1E1,9.19E2,3.6E1],"tree_param":{"num_deleted":"0","num_feature":"38","num_nodes":"7","size_leaf_vector":"1"}},{"base_weights":[-1.525324E-3,-3.9341662E-2,1.7894745E-1,-6.1891597E-2,1.15486965E-1,8.085992E-3,-3.529256E-2],"categories":[],"categories_nodes":[],"categories_segments":[],"categories_sizes":[],"default_left":[0,0,0,0,0,0,0],"id":1,"left_children":[1,3,-1,5,-1,-1,-1],"loss_changes":[2.8243675E1,1.1117901E1,0E0,7.2402153E0,0E0,0E0,0E0],"parents":[2147483647,0,0,1,1,3,3],"right_children":[2,4,-1,6,-1,-1,-1],"split_conditions":[1E0,1E0,1.7894745E-1,9.9E4,1.15486965E-1,8.085992E-3,-3.529256E-2],"split_indices":[20,9,0,2,0,0,0],"split_type":[0,0,0,0,0,0,0],"sum_hessian":[1.056E3,1.004E3,5.2E1,9.62E2,4.2E1,4.36E2,5.26E2],"tree_param":{"num_deleted":"0","num_feature":"38","num_nodes":"7","size_leaf_vector":"1"}},{"base_weights":[5.402661E-3,-2.3071507E-2,5.080919E-1,-6.9226306E-3,-1.1444437E-1,1.4764163E-1,8.419444E-2,3.2073571E-3,-9.370694E-2],"categories":[],"categories_nodes":[],"categories_segments":[],"categories_sizes":[],"default_left":[0,0,0,0,0,0,0,0,0],"id":2,"left_children":[1,3,5,7,-1,-1,-1,-1,-1],"loss_changes":[1.5256279E1,6.6702237E0,2.3557377E-1,7.1417627E0,0E0,0E0,0E0,0E0,0E0],"parents":[2147483647,0,0,1,1,2,2,3,3],"right_children":[2,4,6,8,-1,-1,-1,-1,-1],"split_conditions":[1E0,1E0,9.9E4,1E0,-1.1444437E-1,1.4764163E-1,8.419444E-2,3.2073571E-3,-9.370694E-2],"split_indices":[20,21,2,7,0,0,0,0,0],"split_type":[0,0,0,0,0,0,0,0,0],"sum_hessian":[1.046E3,9.89E2,5.7E1,9.55E2,3.4E1,3.6E1,2.1E1,9.05E2,5E1],"tree_param":{"num_deleted":"0","num_feature":"38","num_nodes":"9","size_leaf_vector":"1"}},{"base_weights":[-0E0,-2.0180298E-2,9.847132E-2,-3.6346637E-2,3.4445915E-1,-1.33335665E-2,7.212785E-2,8.7384135E-2,-0E0],"categories":[],"categories_nodes":[],"categories_segments":[],"categories_sizes":[],"default_left":[0,0,0,0,0,0,0,0,0],"id":3,"left_children":[1,3,-1,5,7,-1,-1,-1,-1],"loss_changes":[8.336985E0,5.74996E0,0E0,5.171859E0,1.5480995E-2,0E0,0E0,0E0,0E0],"parents":[2147483647,0,0,1,1,3,3,4,4],"right_children":[2,4,-1,6,8,-1,-1,-1,-1],"split_conditions":[1E0,1E0,9.847132E-2,1E0,2.712E1,-1.33335665E-2,7.212785E-2,8.7384135E-2,-0E0],"split_indices":[20,24,0,16,1,0,0,0,0],"split_type":[0,0,0,0,0,0,0,0,0],"sum_hessian":[1.056E3,1.005E3,5.1E1,9.64E2,4.1E1,9.18E2,4.6E1,4E1,1E0],"tree_param":{"num_deleted":"0","num_feature":"38","num_nodes":"9","size_leaf_vector":"1"}},{"base_weights":[-5.358283E-4,-1.5390951E-2,8.963414E-2,-3.2991976E-2,3.02946E-1,2.3095175E-3,-3.555003E-2,-0E0,7.6801926E-2],"categories":[],"categories_nodes":[],"categories_segments":[],"categories_sizes":[],"default_left":[0,0,0,0,0,0,0,0,0],"id":4,"left_children":[1,3,-1,5,7,-1,-1,-1,-1],"loss_changes":[5.3954325E0,5.5005894E0,0E0,4.490713E0,3.1523228E-2,0E0,0E0,0E0,0E0],"parents":[2147483647,0,0,1,1,3,3,4,4],"right_children":[2,4,-1,6,8,-1,-1,-1,-1],"split_conditions":[1E0,1E0,8.963414E-2,1E0,1.924E1,2.3095175E-3,-3.555003E-2,-0E0,7.6801926E-2],"split_indices":[9,20,0,37,1,0,0,0,0],"split_type":[0,0,0,0,0,0,0,0,0],"sum_hessian":[1.049E3,1.009E3,4E1,9.58E2,5.1E1,6.87E2,2.71E2,1E0,5E1],"tree_param":{"num_deleted":"0","num_feature":"38","num_nodes":"9","size_leaf_vector":"1"}},{"base_weights":[2.8728817E-3,1.8680457E-2,-3.1045833E-1,3.5397355E-2,-6.657378E-2,-8.796639E-2,-3.3279635E-2,1.2359339E-2,-7.8931354E-2],"categories":[],"categories_nodes":[],"categories_segments":[],"categories_sizes":[],"default_left":[0,0,0,0,0,0,0,0,0],"id":5,"left_children":[1,3,5,7,-1,-1,-1,-1,-1],"loss_changes":[5.0838604E0,4.682391E0,7.138586E-2,4.552191E0,0E0,0E0,0E0,0E0,0E0],"parents":[2147483647,0,0,1,1,2,2,3,3],"right_children":[2,4,6,8,-1,-1,-1,-1,-1],"split_conditions":[1E0,1E0,1E0,1E0,-6.657378E-2,-8.796639E-2,-3.3279635E-2,1.2359339E-2,-7.8931354E-2],"split_indices":[5,7,33,21,0,0,0,0,0],"split_type":[0,0,0,0,0,0,0,0,0],"sum_hessian":[1.06E3,1.011E3,4.9E1,9.57E2,5.4E1,3.7E1,1.2E1,9.22E2,3.5E1],"tree_param":{"num_deleted":"0","num_feature":"38","num_nodes":"9","size_leaf_vector":"1"}},{"base_weights":[4.3379058E-4,8.425776E-2,-7.346959E-2,1.273692E-1,-1.8392684E-2,-1.1085492E-1,6.0753282E-2,3.58902E-2,-3.788118E-2,-1.2918623E-2,1.4846472E-2,-1.9018868E-2,-6.053523E-2,1.8393122E-2,-3.668329E-2],"categories":[],"categories_nodes":[],"categories_segments":[],"categories_sizes":[],"default_left":[0,0,0,0,0,0,0,0,0,0,0,0,0,0,0],"id":6,"left_children":[1,3,5,7,9,11,13,-1,-1,-1,-1,-1,-1,-1,-1],"loss_changes":[6.4386725E0,2.2324643E0,2.7807937E0,1.5647764E0,3.609031E-1,1.7872992E0,2.6724237E-1,0E0,0E0,0E0,0E0,0E0,0E0,0E0,0E0],"parents":[2147483647,0,0,1,1,2,2,3,3,4,4,5,5,6,6],"right_children":[2,4,6,8,10,12,14,-1,-1,-1,-1,-1,-1,-1,-1],"split_conditions":[1.01E5,1E0,1E0,1E0,1E0,1E0,1E0,3.58902E-2,-3.788118E-2,-1.2918623E-2,1.4846472E-2,-1.9018868E-2,-6.053523E-2,1.8393122E-2,-3.668329E-2],"split_indices":[2,37,36,5,33,32,11,0,0,0,0,0,0,0,0],"split_type":[0,0,0,0,0,0,0,0,0,0,0,0,0,0,0],"sum_hessian":[1.038E3,4.9E2,5.48E2,3.49E2,1.41E2,4.32E2,1.16E2,3.32E2,1.7E1,1.04E2,3.7E1,3.45E2,8.7E1,1.12E2,4E0],"tree_param":{"num_deleted":"0","num_feature":"38","num_nodes":"15","size_leaf_vector":"1"}},{"base_weights":[2.1769982E-3,1.455787E-1,-2.3491178E-2,1.8149322E-1,1.6371204E-2,-1.2030648E-2,-8.014646E-2,4.8870776E-2,-0E0,-4.4250228E-3,1.3194742E-2,-6.897451E-5,-6.081142E-2],"categories":[],"categories_nodes":[],"categories_segments":[],"categories_sizes":[],"default_left":[0,0,0,0,0,0,0,0,0,0,0,0,0],"id":7,"left_children":[1,3,5,7,9,11,-1,-1,-1,-1,-1,-1,-1],"loss_changes":[3.943896E0,6.426103E-1,2.8327508E0,4.1876316E-1,6.8895034E-2,2.1902974E0,0E0,0E0,0E0,0E0,0E0,0E0,0E0],"parents":[2147483647,0,0,1,1,2,2,3,3,4,4,5,5],"right_children":[2,4,6,8,10,12,-1,-1,-1,-1,-1,-1,-1],"split_conditions":[5.2E4,1E0,1E0,1E0,2.318E1,1E0,-8.014646E-2,4.8870776E-2,-0E0,-4.4250228E-3,1.3194742E-2,-6.897451E-5,-6.081142E-2],"split_indices":[2,37,11,5,1,5,0,0,0,0,0,0,0],"split_type":[0,0,0,0,0,0,0,0,0,0,0,0,0],"sum_hessian":[1.052E3,1.63E2,8.89E2,1.24E2,3.9E1,8.58E2,3.1E1,1.18E2,6E0,1.2E1,2.7E1,8.19E2,3.9E1],"tree_param":{"num_deleted":"0","num_feature":"38","num_nodes":"13","size_leaf_vector":"1"}},{"base_weights":[-1.8861085E-3,-1.3570768E-2,6.4113505E-2,4.1684758E-2,-6.068609E-2,2.5185891E-3,3.6420025E-2,-2.2437664E-2,7.911027E-3],"categories":[],"categories_nodes":[],"categories_segments":[],"categories_sizes":[],"default_left":[0,0,0,0,0,0,0,0,0],"id":8,"left_children":[1,3,-1,5,7,-1,-1,-1,-1],"loss_changes":[3.0163248E0,2.6230476E0,0E0,1.4083881E0,1.4985223E0,0E0,0E0,0E0,0E0],"parents":[2147483647,0,0,1,1,3,3,4,4],"right_children":[2,4,-1,6,8,-1,-1,-1,-1],"split_conditions":[1E0,9.9E4,6.4113505E-2,1E0,1E0,2.5185891E-3,3.6420025E-2,-2.2437664E-2,7.911027E-3],"split_indices":[9,2,0,33,36,0,0,0,0],"split_type":[0,0,0,0,0,0,0,0,0],"sum_hessian":[1.046E3,1.003E3,4.3E1,4.56E2,5.47E2,3.54E2,1.02E2,4.21E2,1.26E2],"tree_param":{"num_deleted":"0","num_feature":"38","num_nodes":"9","size_leaf_vector":"1"}},{"base_weights":[-0E0,-8.810971E-3,6.4723566E-2,-1.9043677E-2,5.4063726E-2,-7.3897606E-3,5.664079E-2],"categories":[],"categories_nodes":[],"categories_segments":[],"categories_sizes":[],"default_left":[0,0,0,0,0,0,0],"id":9,"left_children":[1,3,-1,5,-1,-1,-1],"loss_changes":[2.3649895E0,2.1934848E0,0E0,2.3630433E0,0E0,0E0,0E0],"parents":[2147483647,0,0,1,1,3,3],"right_children":[2,4,-1,6,-1,-1,-1],"split_conditions":[1E0,1E0,6.4723566E-2,1E0,5.4063726E-2,-7.3897606E-3,5.664079E-2],"split_indices":[24,22,0,10,0,0,0],"split_type":[0,0,0,0,0,0,0],"sum_hessian":[1.036E3,1.002E3,3.4E1,9.61E2,4.1E1,9.24E2,3.7E1],"tree_param":{"num_deleted":"0","num_feature":"38","num_nodes":"7","size_leaf_vector":"1"}},{"base_weights":[-0E0,-1.08525995E-2,2.1832632E-1,-2.2612913E-2,1.9627288E-1,5.9340153E-2,6.774033E-3,-8.24961E-3,4.9500894E-2,5.0893534E-2,-0E0],"categories":[],"categories_nodes":[],"categories_segments":[],"categories_sizes":[],"default_left":[0,0,0,0,0,0,0,0,0,0,0],"id":10,"left_children":[1,3,5,7,9,-1,-1,-1,-1,-1,-1],"loss_changes":[2.3666034E0,2.3393857E0,1.6637087E-2,2.0764325E0,6.342995E-2,0E0,0E0,0E0,0E0,0E0,0E0],"parents":[2147483647,0,0,1,1,2,2,3,3,4,4],"right_children":[2,4,6,8,10,-1,-1,-1,-1,-1,-1],"split_conditions":[1E0,1E0,1E0,1E0,1.85E5,5.9340153E-2,6.774033E-3,-8.24961E-3,4.9500894E-2,5.0893534E-2,-0E0],"split_indices":[16,20,32,9,2,0,0,0,0,0,0],"split_type":[0,0,0,0,0,0,0,0,0,0,0],"sum_hessian":[1.048E3,1.001E3,4.7E1,9.5E2,5.1E1,4E1,7E0,9.1E2,4E1,4.9E1,2E0],"tree_param":{"num_deleted":"0","num_feature":"38","num_nodes":"11","size_leaf_vector":"1"}},{"base_weights":[-0E0,-2.087962E-2,9.044482E-2,-1.1932771E-2,-2.4453323E-1,1.3594988E-1,-0E0,-3.6020638E-4,-4.9084254E-2,-0E0,-6.32606E-2,3.8499832E-2,-1.2614192E-2,2.854488E-3,-2.7124131E-2],"categories":[],"categories_nodes":[],"categories_segments":[],"categories_sizes":[],"default_left":[0,0,0,0,0,0,0,0,0,0,0,0,0,0,0],"id":11,"left_children":[1,3,5,7,9,11,13,-1,-1,-1,-1,-1,-1,-1,-1],"loss_changes":[2.0240548E0,1.5508277E0,8.4451485E-1,1.4698089E0,6.0902E-2,5.127809E-1,9.217176E-2,0E0,0E0,0E0,0E0,0E0,0E0,0E0,0E0],"parents":[2147483647,0,0,1,1,2,2,3,3,4,4,5,5,6,6],"right_children":[2,4,6,8,10,12,14,-1,-1,-1,-1,-1,-1,-1,-1],"split_conditions":[1E0,1E0,1E0,1E0,3.7E4,1E0,1E0,-3.6020638E-4,-4.9084254E-2,-0E0,-6.32606E-2,3.8499832E-2,-1.2614192E-2,2.854488E-3,-2.7124131E-2],"split_indices":[33,17,37,7,2,25,11,0,0,0,0,0,0,0,0],"split_type":[0,0,0,0,0,0,0,0,0,0,0,0,0,0,0],"sum_hessian":[1.051E3,8.49E2,2.02E2,8.19E2,3E1,1.35E2,6.7E1,7.78E2,4.1E1,1E0,2.9E1,1.26E2,9E0,6E1,7E0],"tree_param":{"num_deleted":"0","num_feature":"38","num_nodes":"15","size_leaf_vector":"1"}},{"base_weights":[-0E0,-2.2245113E-2,7.448709E-2,-5.0333977E-2,3.3250477E-2,1.6310975E-1,4.081948E-2,-1.7449599E-2,5.0836774E-3,1.1188109E-2,-4.5445565E-2,4.589491E-2,-0E0,1.279422E-2,-3.260087E-2],"categories":[],"categories_nodes":[],"categories_segments":[],"categories_sizes":[],"default_left":[0,0,0,0,0,0,0,0,0,0,0,0,0,0,0],"id":12,"left_children":[1,3,5,7,9,11,13,-1,-1,-1,-1,-1,-1,-1,-1],"loss_changes":[1.7570565E0,1.294874E0,6.068293E-1,7.8878975E-1,5.883143E-1,2.698152E-1,2.7544278E-1,0E0,0E0,0E0,0E0,0E0,0E0,0E0,0E0],"parents":[2147483647,0,0,1,1,2,2,3,3,4,4,5,5,6,6],"right_children":[2,4,6,8,10,12,14,-1,-1,-1,-1,-1,-1,-1,-1],"split_conditions":[1E0,1E0,6.7E4,1E0,1E0,1E0,1E0,-1.7449599E-2,5.0836774E-3,1.1188109E-2,-4.5445565E-2,4.589491E-2,-0E0,1.279422E-2,-3.260087E-2],"split_indices":[36,35,2,33,18,18,18,0,0,0,0,0,0,0,0],"split_type":[0,0,0,0,0,0,0,0,0,0,0,0,0,0,0],"sum_hessian":[1.067E3,8.24E2,2.43E2,5.54E2,2.7E2,6.2E1,1.81E2,4.41E2,1.13E2,2.59E2,1.1E1,5.7E1,5E0,1.74E2,7E0],"tree_param":{"num_deleted":"0","num_feature":"38","num_nodes":"15","size_leaf_vector":"1"}},{"base_weights":[9.5355837E-4,8.769286E-3,-5.758322E-2,1.7967517E-2,-4.4553153E-2,7.092969E-3,-3.810066E-2],"categories":[],"categories_nodes":[],"categories_segments":[],"categories_sizes":[],"default_left":[0,0,0,0,0,0,0],"id":13,"left_children":[1,3,-1,5,-1,-1,-1],"loss_changes":[1.782305E0,1.6701849E0,0E0,1.6619947E0,0E0,0E0,0E0],"parents":[2147483647,0,0,1,1,3,3],"right_children":[2,4,-1,6,-1,-1,-1],"split_conditions":[1E0,1E0,-5.758322E-2,1E0,-4.4553153E-2,7.092969E-3,-3.810066E-2],"split_indices":[21,25,0,7,0,0,0],"split_type":[0,0,0,0,0,0,0],"sum_hessian":[1.057E3,1.025E3,3.2E1,9.8E2,4.5E1,9.27E2,5.3E1],"tree_param":{"num_deleted":"0","num_feature":"38","num_nodes":"7","size_leaf_vector":"1"}},{"base_weights":[-3.3850314E-3,4.7632493E-3,-5.4707017E-2,1.3985468E-2,-1.6509871E-1,5.368879E-3,-4.3410458E-2,-4.737047E-2,-7.0343227E-3],"categories":[],"categories_nodes":[],"categories_segments":[],"categories_sizes":[],"default_left":[0,0,0,0,0,0,0,0,0],"id":14,"left_children":[1,3,-1,5,7,-1,-1,-1,-1],"loss_changes":[1.9796863E0,1.5066961E0,0E0,1.2697005E0,3.698325E-2,0E0,0E0,0E0,0E0],"parents":[2147483647,0,0,1,1,3,3,4,4],"right_children":[2,4,-1,6,8,-1,-1,-1,-1],"split_conditions":[1E0,1E0,-5.4707017E-2,1E0,1E0,5.368879E-3,-4.3410458E-2,-4.737047E-2,-7.0343227E-3],"split_indices":[11,5,0,21,36,0,0,0,0],"split_type":[0,0,0,0,0,0,0,0,0],"sum_hessian":[1.058E3,1.017E3,4.1E1,9.68E2,4.9E1,9.34E2,3.4E1,3.8E1,1.1E1],"tree_param":{"num_deleted":"0","num_feature":"38","num_nodes":"9","size_leaf_vector":"1"}},{"base_weights":[-3.1742547E-3,-1.066834E-2,4.3396E-2,-1.9135935E-2,1.32198E-1,-6.6295327E-3,3.7693024E-2,-0E0,3.606289E-2],"categories":[],"categories_nodes":[],"categories_segments":[],"categories_sizes":[],"default_left":[0,0,0,0,0,0,0,0,0],"id":15,"left_children":[1,3,-1,5,7,-1,-1,-1,-1],"loss_changes":[1.2819883E0,1.1452088E0,0E0,1.1143785E0,4.7552824E-2,0E0,0E0,0E0,0E0],"parents":[2147483647,0,0,1,1,3,3,4,4],"right_children":[2,4,-1,6,8,-1,-1,-1,-1],"split_conditions":[1E0,1E0,4.3396E-2,1E0,1.001E0,-6.6295327E-3,3.7693024E-2,-0E0,3.606289E-2],"split_indices":[24,20,0,10,0,0,0,0,0],"split_type":[0,0,0,0,0,0,0,0,0],"sum_hessian":[1.039E3,1E3,3.9E1,9.48E2,5.2E1,9.12E2,3.6E1,6E0,4.6E1],"tree_param":{"num_deleted":"0","num_feature":"38","num_nodes":"9","size_leaf_vector":"1"}},{"base_weights":[4.0221154E-3,1.1325534E-2,-1.9586195E-1,1.8850382E-2,-1.6132115E-1,-0E0,-2.2233827E-1,6.59673E-3,-4.0142003E-2,-0E0,-4.5538798E-2,-0E0,-5.6661543E-2],"categories":[],"categories_nodes":[],"categories_segments":[],"categories_sizes":[],"default_left":[0,0,0,0,0,0,0,0,0,0,0,0,0],"id":16,"left_children":[1,3,5,7,9,-1,11,-1,-1,-1,-1,-1,-1],"loss_changes":[1.4241668E0,1.2359536E0,1.3123357E-1,1.2376809E0,7.958996E-2,0E0,2.8704405E-3,0E0,0E0,0E0,0E0,0E0,0E0],"parents":[2147483647,0,0,1,1,2,2,3,3,4,4,6,6],"right_children":[2,4,6,8,10,-1,12,-1,-1,-1,-1,-1,-1],"split_conditions":[1E0,1E0,3.6E4,1E0,4.2E4,-0E0,2.24E0,6.59673E-3,-4.0142003E-2,-0E0,-4.5538798E-2,-0E0,-5.6661543E-2],"split_indices":[18,6,2,11,2,0,3,0,0,0,0,0,0],"split_type":[0,0,0,0,0,0,0,0,0,0,0,0,0],"sum_hessian":[1.048E3,1.014E3,3.4E1,9.75E2,3.9E1,5E0,2.9E1,9.39E2,3.6E1,6E0,3.3E1,1E0,2.8E1],"tree_param":{"num_deleted":"0","num_feature":"38","num_nodes":"13","size_leaf_vector":"1"}},{"base_weights":[7.289916E-4,7.572367E-3,-4.765618E-2,2.5246153E-2,-5.7062276E-2,1.122279E-2,-8.2888035E-3,-1.6105121E-2,1.0372419E-2],"categories":[],"categories_nodes":[],"categories_segments":[],"categories_sizes":[],"default_left":[0,0,0,0,0,0,0,0,0],"id":17,"left_children":[1,3,-1,5,7,-1,-1,-1,-1],"loss_changes":[1.2611257E0,1.1370156E0,0E0,9.24221E-1,1.650315E-1,0E0,0E0,0E0,0E0],"parents":[2147483647,0,0,1,1,3,3,4,4],"right_children":[2,4,-1,6,8,-1,-1,-1,-1],"split_conditions":[1E0,1E0,-4.765618E-2,1E0,1E0,1.122279E-2,-8.2888035E-3,-1.6105121E-2,1.0372419E-2],"split_indices":[17,32,0,31,16,0,0,0,0],"split_type":[0,0,0,0,0,0,0,0,0],"sum_hessian":[1.044E3,1.011E3,3.3E1,8.01E2,2.1E2,6.07E2,1.94E2,2.01E2,9E0],"tree_param":{"num_deleted":"0","num_feature":"38","num_nodes":"9","size_leaf_vector":"1"}},{"base_weights":[-1.0166236E-3,7.964598E-2,-1.6828513E-2,8.9938186E-2,-2.3037316E-2,-2.404796E-2,1.5111028E-1,2.524746E-2,-6.2527996E-3,-7.600271E-3,-0E0,-8.020383E-3,2.9933887E-2,-0E0,3.9542764E-2],"categories":[],"categories_nodes":[],"categories_segments":[],"categories_sizes":[],"default_left":[0,0,0,0,0,0,0,0,0,0,0,0,0,0,0],"id":18,"left_children":[1,3,5,7,9,11,13,-1,-1,-1,-1,-1,-1,-1,-1],"loss_changes":[1.3034433E0,2.145536E-1,9.993812E-1,2.4120879E-1,3.0670767E-3,9.297745E-1,2.123022E-2,0E0,0E0,0E0,0E0,0E0,0E0,0E0,0E0],"parents":[2147483647,0,0,1,1,2,2,3,3,4,4,5,5,6,6],"right_children":[2,4,6,8,10,12,14,-1,-1,-1,-1,-1,-1,-1,-1],"split_conditions":[5.2E4,1E0,1E0,1E0,1E0,1E0,2.27E0,2.524746E-2,-6.2527996E-3,-7.600271E-3,-0E0,-8.020383E-3,2.9933887E-2,-0E0,3.9542764E-2],"split_indices":[2,5,27,25,29,16,3,0,0,0,0,0,0,0,0],"split_type":[0,0,0,0,0,0,0,0,0,0,0,0,0,0,0],"sum_hessian":[1.05E3,1.66E2,8.84E2,1.56E2,1E1,8.51E2,3.3E1,1.47E2,9E0,9E0,1E0,8.1E2,4.1E1,2E0,3.1E1],"tree_param":{"num_deleted":"0","num_feature":"38","num_nodes":"15","size_leaf_vector":"1"}},{"base_weights":[-1.4736346E-3,5.1044403E-3,-1.41039E-1,1.2755653E-2,-1.3696137E-1,-3.5670664E-2,-0E0,5.0890665E-3,-3.013547E-2,-0E0,-3.5654984E-2],"categories":[],"categories_nodes":[],"categories_segments":[],"categories_sizes":[],"default_left":[0,0,0,0,0,0,0,0,0,0,0],"id":19,"left_children":[1,3,5,7,9,-1,-1,-1,-1,-1,-1],"loss_changes":[1.0417126E0,1.0136929E0,1.95992E-3,9.0377843E-1,1.225096E-2,0E0,0E0,0E0,0E0,0E0,0E0],"parents":[2147483647,0,0,1,1,2,2,3,3,4,4],"right_children":[2,4,6,8,10,-1,-1,-1,-1,-1,-1],"split_conditions":[1E0,1E0,2.6E0,1E0,2.6E4,-3.5670664E-2,-0E0,5.0890665E-3,-3.013547E-2,-0E0,-3.5654984E-2],"split_indices":[25,26,3,5,2,0,0,0,0,0,0],"split_type":[0,0,0,0,0,0,0,0,0,0,0],"sum_hessian":[1.049E3,9.98E2,5.1E1,9.51E2,4.7E1,5E1,1E0,9.04E2,4.7E1,3E0,4.4E1],"tree_param":{"num_deleted":"0","num_feature":"38","num_nodes":"11","size_leaf_vector":"1"}},{"base_weights":[-3.3011686E-3,-1.8885354E-2,4.8162125E-2,-2.594607E-2,1.2242605E-1,2.6101379E-2,1.2068449E-1,-8.183109E-3,3.244889E-2,3.7565522E-2,-0E0,8.701653E-3,-2.0276204E-2,-0E0,3.3722978E-2],"categories":[],"categories_nodes":[],"categories_segments":[],"categories_sizes":[],"default_left":[0,0,0,0,0,0,0,0,0,0,0,0,0,0,0],"id":20,"left_children":[1,3,5,7,9,11,13,-1,-1,-1,-1,-1,-1,-1,-1],"loss_changes":[8.311502E-1,7.632735E-1,2.9427952E-1,7.711419E-1,1.0798752E-1,1.4880693E-1,1.0453206E-1,0E0,0E0,0E0,0E0,0E0,0E0,0E0,0E0],"parents":[2147483647,0,0,1,1,2,2,3,3,4,4,5,5,6,6],"right_children":[2,4,6,8,10,12,14,-1,-1,-1,-1,-1,-1,-1,-1],"split_conditions":[1E0,1E0,1E0,1E0,1E0,1E0,2.3E0,-8.183109E-3,3.244889E-2,3.7565522E-2,-0E0,8.701653E-3,-2.0276204E-2,-0E0,3.3722978E-2],"split_indices":[36,9,33,12,31,18,3,0,0,0,0,0,0,0,0],"split_type":[0,0,0,0,0,0,0,0,0,0,0,0,0,0,0],"sum_hessian":[1.057E3,8.2E2,2.37E2,7.85E2,3.5E1,1.88E2,4.9E1,7.56E2,2.9E1,2.8E1,7E0,1.79E2,9E0,4E0,4.5E1],"tree_param":{"num_deleted":"0","num_feature":"38","num_nodes":"15","size_leaf_vector":"1"}},{"base_weights":[3.4466496E-4,-5.3894157E-3,3.864529E-2,-1.2113904E-2,2.7239176E-2,-4.878898E-3,2.399318E-2],"categories":[],"categories_nodes":[],"categories_segments":[],"categories_sizes":[],"default_left":[0,0,0,0,0,0,0],"id":21,"left_children":[1,3,-1,5,-1,-1,-1],"loss_changes":[1.0115135E0,7.17557E-1,0E0,7.184069E-1,0E0,0E0,0E0],"parents":[2147483647,0,0,1,1,3,3],"right_children":[2,4,-1,6,-1,-1,-1],"split_conditions":[1E0,1E0,3.864529E-2,1E0,2.7239176E-2,-4.878898E-3,2.399318E-2],"split_indices":[22,16,0,20,0,0,0],"split_type":[0,0,0,0,0,0,0],"sum_hessian":[1.047E3,1.006E3,4.1E1,9.55E2,5.1E1,8.99E2,5.6E1],"tree_param":{"num_deleted":"0","num_feature":"38","num_nodes":"7","size_leaf_vector":"1"}},{"base_weights":[-2.0474812E-4,2.6833631E-2,-2.4981778E-2,1.9197486E-2,1.4656478E-1,-3.1665634E-2,2.15129E-2,3.2772133E-3,3.7260205E-2,3.7873182E-2,-0E0,-9.553472E-3,2.2277923E-2],"categories":[],"categories_nodes":[],"categories_segments":[],"categories_sizes":[],"default_left":[0,0,0,0,0,0,0,0,0,0,0,0,0],"id":22,"left_children":[1,3,5,7,9,11,-1,-1,-1,-1,-1,-1,-1],"loss_changes":[6.858466E-1,3.420444E-1,3.7425712E-1,2.6636773E-1,1.17537975E-2,3.806249E-1,0E0,0E0,0E0,0E0,0E0,0E0,0E0],"parents":[2147483647,0,0,1,1,2,2,3,3,4,4,5,5],"right_children":[2,4,6,8,10,12,-1,-1,-1,-1,-1,-1,-1],"split_conditions":[1.01E5,1E0,1E0,1E0,2.735E1,1E0,2.15129E-2,3.2772133E-3,3.7260205E-2,3.7873182E-2,-0E0,-9.553472E-3,2.2277923E-2],"split_indices":[2,15,10,9,1,27,0,0,0,0,0,0,0],"split_type":[0,0,0,0,0,0,0,0,0,0,0,0,0],"sum_hessian":[1.025E3,4.79E2,5.46E2,4.55E2,2.4E1,5.2E2,2.6E1,4.39E2,1.6E1,2.3E1,1E0,4.98E2,2.2E1],"tree_param":{"num_deleted":"0","num_feature":"38","num_nodes":"13","size_leaf_vector":"1"}},{"base_weights":[1.4467955E-3,6.9778305E-3,-3.4753475E-2,1.4187414E-2,-2.6186034E-2,5.124636E-3,-3.1913284E-2],"categories":[],"categories_nodes":[],"categories_segments":[],"categories_sizes":[],"default_left":[0,0,0,0,0,0,0],"id":23,"left_children":[1,3,-1,5,-1,-1,-1],"loss_changes":[7.45583E-1,7.70845E-1,0E0,8.000163E-1,0E0,0E0,0E0],"parents":[2147483647,0,0,1,1,3,3],"right_children":[2,4,-1,6,-1,-1,-1],"split_conditions":[1E0,1E0,-3.4753475E-2,1E0,-2.6186034E-2,5.124636E-3,-3.1913284E-2],"split_indices":[18,7,0,21,0,0,0],"split_type":[0,0,0,0,0,0,0],"sum_hessian":[1.058E3,1.022E3,3.6E1,9.65E2,5.7E1,9.28E2,3.7E1],"tree_param":{"num_deleted":"0","num_feature":"38","num_nodes":"7","size_leaf_vector":"1"}},{"base_weights":[8.5626775E-4,6.378011E-3,-3.2009758E-2,-5.408868E-3,5.903864E-2,-5.4139625E-3,1.0649246E-2,1.7502032E-2,-1.2242092E-2],"categories":[],"categories_nodes":[],"categories_segments":[],"categories_sizes":[],"default_left":[0,0,0,0,0,0,0,0,0],"id":24,"left_children":[1,3,-1,5,7,-1,-1,-1,-1],"loss_changes":[6.8191373E-1,6.6296047E-1,0E0,6.290545E-1,2.4276477E-1,0E0,0E0,0E0,0E0],"parents":[2147483647,0,0,1,1,3,3,4,4],"right_children":[2,4,-1,6,8,-1,-1,-1,-1],"split_conditions":[1E0,1E0,-3.2009758E-2,1E0,1E0,-5.4139625E-3,1.0649246E-2,1.7502032E-2,-1.2242092E-2],"split_indices":[6,33,0,29,5,0,0,0,0],"split_type":[0,0,0,0,0,0,0,0,0],"sum_hessian":[1.057E3,1.018E3,3.9E1,8.23E2,1.95E2,6.24E2,1.99E2,1.82E2,1.3E1],"tree_param":{"num_deleted":"0","num_feature":"38","num_nodes":"9","size_leaf_vector":"1"}},{"base_weights":[1.5622469E-4,4.7609783E-3,-3.374834E-2,9.989915E-3,-2.8351244E-2,3.951047E-3,-2.3503732E-2],"categories":[],"categories_nodes":[],"categories_segments":[],"categories_sizes":[],"default_left":[0,0,0,0,0,0,0],"id":25,"left_children":[1,3,-1,5,-1,-1,-1],"loss_changes":[5.7193404E-1,5.6434387E-1,0E0,5.414795E-1,0E0,0E0,0E0],"parents":[2147483647,0,0,1,1,3,3],"right_children":[2,4,-1,6,-1,-1,-1],"split_conditions":[1E0,1E0,-3.374834E-2,1E0,-2.8351244E-2,3.951047E-3,-2.3503732E-2],"split_indices":[17,11,0,8,0,0,0],"split_type":[0,0,0,0,0,0,0],"sum_hessian":[1.04E3,1.01E3,3E1,9.72E2,3.8E1,9.26E2,4.6E1],"tree_param":{"num_deleted":"0","num_feature":"38","num_nodes":"7","size_leaf_vector":"1"}},{"base_weights":[-1.7647154E-3,3.2295734E-3,-1.12205125E-1,5.906115E-2,-5.1082144E-3,-0E0,-3.0352209E-2,1.6670587E-2,-2.8269454E-3,1.6573537E-3,-1.2541754E-2],"categories":[],"categories_nodes":[],"categories_segments":[],"categories_sizes":[],"default_left":[0,0,0,0,0,0,0,0,0,0,0],"id":26,"left_children":[1,3,5,7,9,-1,-1,-1,-1,-1,-1],"loss_changes":[6.3882685E-1,4.939581E-1,3.7385821E-3,1.0563505E-1,4.7738096E-1,0E0,0E0,0E0,0E0,0E0,0E0],"parents":[2147483647,0,0,1,1,2,2,3,3,4,4],"right_children":[2,4,6,8,10,-1,-1,-1,-1,-1,-1],"split_conditions":[1E0,5.1E4,4.6E4,1E0,1E0,-0E0,-3.0352209E-2,1.6670587E-2,-2.8269454E-3,1.6573537E-3,-1.2541754E-2],"split_indices":[25,2,2,11,32,0,0,0,0,0,0],"split_type":[0,0,0,0,0,0,0,0,0,0,0],"sum_hessian":[1.044E3,9.94E2,5E1,1.38E2,8.56E2,7E0,4.3E1,1.32E2,6E0,6.69E2,1.87E2],"tree_param":{"num_deleted":"0","num_feature":"38","num_nodes":"11","size_leaf_vector":"1"}},{"base_weights":[9.691486E-4,-3.2300553E-3,1.14316545E-1,-9.387611E-3,1.0664494E-1,1.1608844E-1,-0E0,-3.4874391E-3,2.9939093E-2,-0E0,2.6993811E-2,-0E0,2.9457502E-2],"categories":[],"categories_nodes":[],"categories_segments":[],"categories_sizes":[],"default_left":[0,0,0,0,0,0,0,0,0,0,0,0,0],"id":27,"left_children":[1,3,5,7,9,11,-1,-1,-1,-1,-1,-1,-1],"loss_changes":[5.606268E-1,6.214623E-1,3.7418604E-3,4.9923143E-1,1.2629628E-3,2.0456314E-3,0E0,0E0,0E0,0E0,0E0,0E0,0E0],"parents":[2147483647,0,0,1,1,2,2,3,3,4,4,5,5],"right_children":[2,4,6,8,10,12,-1,-1,-1,-1,-1,-1,-1],"split_conditions":[1E0,1E0,1.88E5,1E0,2.22E0,8.2E-1,-0E0,-3.4874391E-3,2.9939093E-2,-0E0,2.6993811E-2,-0E0,2.9457502E-2],"split_indices":[24,4,2,12,3,0,0,0,0,0,0,0,0],"split_type":[0,0,0,0,0,0,0,0,0,0,0,0,0],"sum_hessian":[1.043E3,1.001E3,4.2E1,9.53E2,4.8E1,4.1E1,1E0,9.25E2,2.8E1,1E0,4.7E1,1E0,4E1],"tree_param":{"num_deleted":"0","num_feature":"38","num_nodes":"13","size_leaf_vector":"1"}},{"base_weights":[-5.6947477E-4,-1.3017392E-2,3.9487127E-2,-3.2663334E-2,2.699906E-2,4.6761647E-2,-3.6399662E-2,-2.2204649E-3,-1.2720451E-2,8.073887E-3,-1.3761628E-2,1.3388279E-2,-6.3335807E-3,-0E0,-1.0286799E-2],"categories":[],"categories_nodes":[],"categories_segments":[],"categories_sizes":[],"default_left":[0,0,0,0,0,0,0,0,0,0,0,0,0,0,0],"id":28,"left_children":[1,3,5,7,9,11,13,-1,-1,-1,-1,-1,-1,-1,-1],"loss_changes":[5.1295745E-1,6.474241E-1,1.3885906E-1,2.0731777E-1,9.968595E-2,1.2654722E-1,3.4919307E-3,0E0,0E0,0E0,0E0,0E0,0E0,0E0,0E0],"parents":[2147483647,0,0,1,1,2,2,3,3,4,4,5,5,6,6],"right_children":[2,4,6,8,10,12,14,-1,-1,-1,-1,-1,-1,-1,-1],"split_conditions":[1E0,1E0,1E0,1.01E5,1E0,1E0,4.9E4,-2.2204649E-3,-1.2720451E-2,8.073887E-3,-1.3761628E-2,1.3388279E-2,-6.3335807E-3,-0E0,-1.0286799E-2],"split_indices":[36,35,7,2,21,18,2,0,0,0,0,0,0,0,0],"split_type":[0,0,0,0,0,0,0,0,0,0,0,0,0,0,0],"sum_hessian":[1.059E3,8.19E2,2.4E2,5.59E2,2.6E2,2.26E2,1.4E1,2.56E2,3.03E2,2.51E2,9E0,2.14E2,1.2E1,1E0,1.3E1],"tree_param":{"num_deleted":"0","num_feature":"38","num_nodes":"15","size_leaf_vector":"1"}},{"base_weights":[-0E0,4.4388175E-3,-2.5991581E-2,9.976197E-3,-2.3310179E-2,3.9407383E-3,-2.064497E-2],"categories":[],"categories_nodes":[],"categories_segments":[],"categories_sizes":[],"default_left":[0,0,0,0,0,0,0],"id":29,"left_children":[1,3,-1,5,-1,-1,-1],"loss_changes":[4.42533E-1,4.9333358E-1,0E0,4.70859E-1,0E0,0E0,0E0],"parents":[2147483647,0,0,1,1,3,3],"right_children":[2,4,-1,6,-1,-1,-1],"split_conditions":[1E0,1E0,-2.5991581E-2,1E0,-2.3310179E-2,3.9407383E-3,-2.064497E-2],"split_indices":[6,26,0,25,0,0,0],"split_type":[0,0,0,0,0,0,0],"sum_hessian":[1.04E3,1.001E3,3.9E1,9.53E2,4.8E1,9.03E2,5E1],"tree_param":{"num_deleted":"0","num_feature":"38","num_nodes":"7","size_leaf_vector":"1"}},{"base_weights":[-0E0,3.342662E-3,-1.0747781E-1,8.596094E-3,-9.038898E-2,-0E0,-2.7328547E-2,3.5998793E-3,-1.9675376E-2,-0E0,-2.365753E-2],"categories":[],"categories_nodes":[],"categories_segments":[],"categories_sizes":[],"default_left":[0,0,0,0,0,0,0,0,0,0,0],"id":30,"left_children":[1,3,5,7,9,-1,-1,-1,-1,-1,-1],"loss_changes":[4.1769448E-1,4.538519E-1,1.4357567E-3,4.5290664E-1,1.3843775E-3,0E0,0E0,0E0,0E0,0E0,0E0],"parents":[2147483647,0,0,1,1,2,2,3,3,4,4],"right_children":[2,4,6,8,10,-1,-1,-1,-1,-1,-1],"split_conditions":[1E0,1E0,2.21E0,1E0,3E4,-0E0,-2.7328547E-2,3.5998793E-3,-1.9675376E-2,-0E0,-2.365753E-2],"split_indices":[18,5,3,7,2,0,0,0,0,0,0],"split_type":[0,0,0,0,0,0,0,0,0,0,0],"sum_hessian":[1.052E3,1.017E3,3.5E1,9.69E2,4.8E1,1E0,3.4E1,9.15E2,5.4E1,4E0,4.4E1],"tree_param":{"num_deleted":"0","num_feature":"38","num_nodes":"11","size_leaf_vector":"1"}},{"base_weights":[-0E0,-4.188582E-3,1.00027405E-1,-8.999688E-3,8.768639E-2,-0E0,2.5659436E-2,-3.5595577E-3,2.1144237E-2,2.4739806E-2,-0E0],"categories":[],"categories_nodes":[],"categories_segments":[],"categories_sizes":[],"default_left":[0,0,0,0,0,0,0,0,0,0,0],"id":31,"left_children":[1,3,5,7,9,-1,-1,-1,-1,-1,-1],"loss_changes":[4.092891E-1,3.9112604E-1,9.581298E-3,4.2126122E-1,2.1755308E-2,0E0,0E0,0E0,0E0,0E0,0E0],"parents":[2147483647,0,0,1,1,2,2,3,3,4,4],"right_children":[2,4,6,8,10,-1,-1,-1,-1,-1,-1],"split_conditions":[1E0,1E0,2.041E1,1E0,1E0,-0E0,2.5659436E-2,-3.5595577E-3,2.1144237E-2,2.4739806E-2,-0E0],"split_indices":[22,9,1,23,37,0,0,0,0,0,0],"split_type":[0,0,0,0,0,0,0,0,0,0,0],"sum_hessian":[1.026E3,9.87E2,3.9E1,9.44E2,4.3E1,1E0,3.8E1,9E2,4.4E1,3.6E1,7E0],"tree_param":{"num_deleted":"0","num_feature":"38","num_nodes":"11","size_leaf_vector":"1"}},{"base_weights":[-7.412817E-4,8.25673E-3,-3.6952373E-2,-1.0021008E-3,4.3893863E-2,-4.41375E-2,9.152378E-3,-4.0587033E-3,6.840921E-3,1.965212E-2,3.2044789E-3,-1.2497456E-2,1.4255784E-3],"categories":[],"categories_nodes":[],"categories_segments":[],"categories_sizes":[],"default_left":[0,0,0,0,0,0,0,0,0,0,0,0,0],"id":32,"left_children":[1,3,5,7,9,11,-1,-1,-1,-1,-1,-1,-1],"loss_changes":[3.675707E-1,3.0525777E-1,1.2466812E-1,2.7934486E-1,1.4987162E-1,8.7623805E-2,0E0,0E0,0E0,0E0,0E0,0E0,0E0],"parents":[2147483647,0,0,1,1,2,2,3,3,4,4,5,5],"right_children":[2,4,6,8,10,12,-1,-1,-1,-1,-1,-1,-1],"split_conditions":[1E0,1E0,1E0,1E0,1.01E5,1E0,9.152378E-3,-4.0587033E-3,6.840921E-3,1.965212E-2,3.2044789E-3,-1.2497456E-2,1.4255784E-3],"split_indices":[32,36,12,35,2,14,0,0,0,0,0,0,0],"split_type":[0,0,0,0,0,0,0,0,0,0,0,0,0],"sum_hessian":[1.077E3,8.5E2,2.27E2,6.62E2,1.88E2,2.14E2,1.3E1,4.44E2,2.18E2,8E1,1.08E2,2.02E2,1.2E1],"tree_param":{"num_deleted":"0","num_feature":"38","num_nodes":"13","size_leaf_vector":"1"}},{"base_weights":[-0E0,3.794043E-3,-1.0321447E-1,7.7115633E-3,-2.452235E-2,-0E0,-2.6712872E-2,3.131162E-3,-1.9346152E-2],"categories":[],"categories_nodes":[],"categories_segments":[],"categories_sizes":[],"default_left":[0,0,0,0,0,0,0,0,0],"id":33,"left_children":[1,3,5,7,-1,-1,-1,-1,-1],"loss_changes":[3.680395E-1,3.5296336E-1,1.9730031E-3,3.644191E-1,0E0,0E0,0E0,0E0,0E0],"parents":[2147483647,0,0,1,1,2,2,3,3],"right_children":[2,4,6,8,-1,-1,-1,-1,-1],"split_conditions":[1E0,1E0,4.3E4,1E0,-2.452235E-2,-0E0,-2.6712872E-2,3.131162E-3,-1.9346152E-2],"split_indices":[17,21,2,8,0,0,0,0,0],"split_type":[0,0,0,0,0,0,0,0,0],"sum_hessian":[1.048E3,1.015E3,3.3E1,9.83E2,3.2E1,2E0,3.1E1,9.37E2,4.6E1],"tree_param":{"num_deleted":"0","num_feature":"38","num_nodes":"9","size_leaf_vector":"1"}},{"base_weights":[-1.1537846E-3,1.994982E-3,-1.953884E-2,6.0329866E-3,-2.227491E-2,2.5572472E-3,-1.8854853E-2],"categories":[],"categories_nodes":[],"categories_segments":[],"categories_sizes":[],"default_left":[0,0,0,0,0,0,0],"id":34,"left_children":[1,3,-1,5,-1,-1,-1],"loss_changes":[2.9639235E-1,3.176712E-1,0E0,2.8922632E-1,0E0,0E0,0E0],"parents":[2147483647,0,0,1,1,3,3],"right_children":[2,4,-1,6,-1,-1,-1],"split_conditions":[1E0,1E0,-1.953884E-2,1E0,-2.227491E-2,2.5572472E-3,-1.8854853E-2],"split_indices":[26,11,0,6,0,0,0],"split_type":[0,0,0,0,0,0,0],"sum_hessian":[1.042E3,9.94E2,4.8E1,9.58E2,3.6E1,9.18E2,4E1],"tree_param":{"num_deleted":"0","num_feature":"38","num_nodes":"7","size_leaf_vector":"1"}},{"base_weights":[-3.6398465E-5,-4.1514095E-3,7.940056E-2,-8.257367E-3,8.087365E-2,2.0299727E-2,-0E0,-3.1469003E-3,1.6935445E-2,2.3039378E-2,-0E0],"categories":[],"categories_nodes":[],"categories_segments":[],"categories_sizes":[],"default_left":[0,0,0,0,0,0,0,0,0,0,0],"id":35,"left_children":[1,3,5,7,9,-1,-1,-1,-1,-1,-1],"loss_changes":[3.0224937E-1,3.1161276E-1,6.013006E-3,2.8739363E-1,1.0083139E-2,0E0,0E0,0E0,0E0,0E0,0E0],"parents":[2147483647,0,0,1,1,2,2,3,3,4,4],"right_children":[2,4,6,8,10,-1,-1,-1,-1,-1,-1],"split_conditions":[1E0,1E0,2.6E0,1E0,1E0,2.0299727E-2,-0E0,-3.1469003E-3,1.6935445E-2,2.3039378E-2,-0E0],"split_indices":[15,24,3,4,32,0,0,0,0,0,0],"split_type":[0,0,0,0,0,0,0,0,0,0,0],"sum_hessian":[1.057E3,1.012E3,4.5E1,9.72E2,4E1,4.4E1,1E0,9.27E2,4.5E1,3.2E1,8E0],"tree_param":{"num_deleted":"0","num_feature":"38","num_nodes":"11","size_leaf_vector":"1"}},{"base_weights":[-1.2877054E-3,-4.766743E-3,2.064997E-2,-9.005363E-3,6.228348E-2,-3.2685609E-3,1.797998E-2,1.8890226E-2,-0E0],"categories":[],"categories_nodes":[],"categories_segments":[],"categories_sizes":[],"default_left":[0,0,0,0,0,0,0,0,0],"id":36,"left_children":[1,3,-1,5,7,-1,-1,-1,-1],"loss_changes":[2.609131E-1,2.573277E-1,0E0,2.8177357E-1,3.803341E-2,0E0,0E0,0E0,0E0],"parents":[2147483647,0,0,1,1,3,3,4,4],"right_children":[2,4,-1,6,8,-1,-1,-1,-1],"split_conditions":[1E0,1E0,2.064997E-2,1E0,1E0,-3.2685609E-3,1.797998E-2,1.8890226E-2,-0E0],"split_indices":[12,20,0,22,31,0,0,0,0],"split_type":[0,0,0,0,0,0,0,0,0],"sum_hessian":[1.048E3,1.013E3,3.5E1,9.61E2,5.2E1,9.22E2,3.9E1,4.2E1,1E1],"tree_param":{"num_deleted":"0","num_feature":"38","num_nodes":"9","size_leaf_vector":"1"}},{"base_weights":[1.0859368E-3,-1.6386376E-3,2.2728175E-2,-5.3837686E-3,2.2928065E-2,-2.3773608E-3,2.0311287E-2],"categories":[],"categories_nodes":[],"categories_segments":[],"categories_sizes":[],"default_left":[0,0,0,0,0,0,0],"id":37,"left_children":[1,3,-1,5,-1,-1,-1],"loss_changes":[3.082768E-1,3.0431113E-1,0E0,3.0826738E-1,0E0,0E0,0E0],"parents":[2147483647,0,0,1,1,3,3],"right_children":[2,4,-1,6,-1,-1,-1],"split_conditions":[1E0,1E0,2.2728175E-2,1E0,2.2928065E-2,-2.3773608E-3,2.0311287E-2],"split_indices":[10,27,0,14,0,0,0],"split_type":[0,0,0,0,0,0,0],"sum_hessian":[1.05E3,1.013E3,3.7E1,9.8E2,3.3E1,9.42E2,3.8E1],"tree_param":{"num_deleted":"0","num_feature":"38","num_nodes":"7","size_leaf_vector":"1"}},{"base_weights":[4.2777782E-4,3.3472076E-2,-4.920766E-3,3.8376022E-2,-0E0,1.7079825E-3,-3.2492418E-2,1.08490195E-2,-0E0,1.2312295E-3,-1.7802026E-2,-1.0417803E-2,-0E0],"categories":[],"categories_nodes":[],"categories_segments":[],"categories_sizes":[],"default_left":[0,0,0,0,0,0,0,0,0,0,0,0,0],"id":38,"left_children":[1,3,5,7,-1,9,11,-1,-1,-1,-1,-1,-1],"loss_changes":[2.0315644E-1,4.6831742E-2,1.811819E-1,5.00945E-2,0E0,1.2673947E-1,4.7467187E-2,0E0,0E0,0E0,0E0,0E0,0E0],"parents":[2147483647,0,0,1,1,2,2,3,3,5,5,6,6],"right_children":[2,4,6,8,-1,10,12,-1,-1,-1,-1,-1,-1],"split_conditions":[5.1E4,1E0,1E0,1E0,-0E0,1E0,1E0,1.08490195E-2,-0E0,1.2312295E-3,-1.7802026E-2,-1.0417803E-2,-0E0],"split_indices":[2,21,32,17,0,18,36,0,0,0,0,0,0],"split_type":[0,0,0,0,0,0,0,0,0,0,0,0,0],"sum_hessian":[1.056E3,1.62E2,8.94E2,1.55E2,7E0,7.04E2,1.9E2,1.48E2,7E0,6.82E2,2.2E1,1.43E2,4.7E1],"tree_param":{"num_deleted":"0","num_feature":"38","num_nodes":"13","size_leaf_vector":"1"}},{"base_weights":[1.6196588E-3,9.536162E-3,-2.888119E-2,1.9591799E-2,-1.5696233E-2,-0E0,-3.5766337E-2,5.856086E-3,-1.11765005E-2,-5.2662487E-3,4.3511726E-3,2.012136E-3,-0E0,-1.1044729E-2,-0E0],"categories":[],"categories_nodes":[],"categories_segments":[],"categories_sizes":[],"default_left":[0,0,0,0,0,0,0,0,0,0,0,0,0,0,0],"id":39,"left_children":[1,3,5,7,9,11,13,-1,-1,-1,-1,-1,-1,-1,-1],"loss_changes":[2.3981507E-1,2.1547571E-1,5.0277606E-2,1.3922675E-1,4.169999E-2,9.168857E-4,4.1171864E-2,0E0,0E0,0E0,0E0,0E0,0E0,0E0,0E0],"parents":[2147483647,0,0,1,1,2,2,3,3,4,4,5,5,6,6],"right_children":[2,4,6,8,10,12,14,-1,-1,-1,-1,-1,-1,-1,-1],"split_conditions":[1E0,1E0,5.5E4,1E0,1E0,1.17E0,1E0,5.856086E-3,-1.11765005E-2,-5.2662487E-3,4.3511726E-3,2.012136E-3,-0E0,-1.1044729E-2,-0E0],"split_indices":[31,32,2,11,12,0,36,0,0,0,0,0,0,0,0],"split_type":[0,0,0,0,0,0,0,0,0,0,0,0,0,0,0],"sum_hessian":[1.039E3,8.4E2,1.99E2,6.17E2,2.23E2,3E1,1.69E2,5.91E2,2.6E1,2.07E2,1.6E1,1.4E1,1.6E1,1.32E2,3.7E1],"tree_param":{"num_deleted":"0","num_feature":"38","num_nodes":"15","size_leaf_vector":"1"}},{"base_weights":[-0E0,-2.950133E-3,6.930133E-2,-6.850857E-3,6.283812E-2,1.7648606E-2,-0E0,-2.748924E-3,1.6065283E-2,1.7740816E-2,-0E0],"categories":[],"categories_nodes":[],"categories_segments":[],"categories_sizes":[],"default_left":[0,0,0,0,0,0,0,0,0,0,0],"id":40,"left_children":[1,3,5,7,9,-1,-1,-1,-1,-1,-1],"loss_changes":[2.1132968E-1,2.2651792E-1,2.335146E-3,2.516864E-1,6.753415E-3,0E0,0E0,0E0,0E0,0E0,0E0],"parents":[2147483647,0,0,1,1,2,2,3,3,4,4],"right_children":[2,4,6,8,10,-1,-1,-1,-1,-1,-1],"split_conditions":[1E0,1E0,1.95E5,1E0,1E0,1.7648606E-2,-0E0,-2.748924E-3,1.6065283E-2,1.7740816E-2,-0E0],"split_indices":[9,15,2,16,34,0,0,0,0,0,0],"split_type":[0,0,0,0,0,0,0,0,0,0,0],"sum_hessian":[1.05E3,1.008E3,4.2E1,9.6E2,4.8E1,4.1E1,1E0,9.15E2,4.5E1,3.9E1,9E0],"tree_param":{"num_deleted":"0","num_feature":"38","num_nodes":"11","size_leaf_vector":"1"}},{"base_weights":[-2.578479E-4,-3.3950326E-3,1.8219704E-2,-6.696562E-3,1.6742287E-2,-2.5783621E-3,1.602064E-2],"categories":[],"categories_nodes":[],"categories_segments":[],"categories_sizes":[],"default_left":[0,0,0,0,0,0,0],"id":41,"left_children":[1,3,-1,5,-1,-1,-1],"loss_changes":[1.9803938E-1,1.9823897E-1,0E0,2.1577817E-1,0E0,0E0,0E0],"parents":[2147483647,0,0,1,1,3,3],"right_children":[2,4,-1,6,-1,-1,-1],"split_conditions":[1E0,1E0,1.8219704E-2,1E0,1.6742287E-2,-2.5783621E-3,1.602064E-2],"split_indices":[27,10,0,23,0,0,0],"split_type":[0,0,0,0,0,0,0],"sum_hessian":[1.038E3,1.003E3,3.5E1,9.66E2,3.7E1,9.27E2,3.9E1],"tree_param":{"num_deleted":"0","num_feature":"38","num_nodes":"7","size_leaf_vector":"1"}},{"base_weights":[-0E0,-3.3134725E-3,1.6574156E-2,-6.591565E-3,6.5949574E-2,-2.5639993E-3,1.4876264E-2,-0E0,1.692003E-2],"categories":[],"categories_nodes":[],"categories_segments":[],"categories_sizes":[],"default_left":[0,0,0,0,0,0,0,0,0],"id":42,"left_children":[1,3,-1,5,7,-1,-1,-1,-1],"loss_changes":[2.1799289E-1,1.9249198E-1,0E0,2.0388673E-1,3.7653595E-3,0E0,0E0,0E0,0E0],"parents":[2147483647,0,0,1,1,3,3,4,4],"right_children":[2,4,-1,6,8,-1,-1,-1,-1],"split_conditions":[1E0,1E0,1.6574156E-2,1E0,6.55E-1,-2.5639993E-3,1.4876264E-2,-0E0,1.692003E-2],"split_indices":[4,12,0,22,0,0,0,0,0],"split_type":[0,0,0,0,0,0,0,0,0],"sum_hessian":[1.045E3,9.98E2,4.7E1,9.61E2,3.7E1,9.19E2,4.2E1,1E0,3.6E1],"tree_param":{"num_deleted":"0","num_feature":"38","num_nodes":"9","size_leaf_vector":"1"}},{"base_weights":[4.892245E-4,-1.8793446E-3,6.821503E-2,-5.3636027E-3,6.809908E-2,-0E0,1.727709E-2,-2.3095962E-3,1.3187363E-2,1.7355485E-2,-0E0],"categories":[],"categories_nodes":[],"categories_segments":[],"categories_sizes":[],"default_left":[0,0,0,0,0,0,0,0,0,0,0],"id":43,"left_children":[1,3,5,7,9,-1,-1,-1,-1,-1,-1],"loss_changes":[2.0416142E-1,2.0556748E-1,2.155751E-4,1.8889181E-1,2.028808E-3,0E0,0E0,0E0,0E0,0E0,0E0],"parents":[2147483647,0,0,1,1,2,2,3,3,4,4],"right_children":[2,4,6,8,10,-1,-1,-1,-1,-1,-1],"split_conditions":[1E0,1E0,2.22E0,1E0,2.64E0,-0E0,1.727709E-2,-2.3095962E-3,1.3187363E-2,1.7355485E-2,-0E0],"split_indices":[24,14,3,20,3,0,0,0,0,0,0],"split_type":[0,0,0,0,0,0,0,0,0,0,0],"sum_hessian":[1.034E3,9.91E2,4.3E1,9.52E2,3.9E1,1E0,4.2E1,9.02E2,5E1,3.8E1,1E0],"tree_param":{"num_deleted":"0","num_feature":"38","num_nodes":"11","size_leaf_vector":"1"}},{"base_weights":[7.060696E-5,-2.068361E-3,1.5938012E-2,-5.7658455E-3,6.0658302E-2,-2.382034E-3,1.5553787E-2,1.54555775E-2,-0E0],"categories":[],"categories_nodes":[],"categories_segments":[],"categories_sizes":[],"default_left":[0,0,0,0,0,0,0,0,0],"id":44,"left_children":[1,3,-1,5,7,-1,-1,-1,-1],"loss_changes":[1.7536494E-1,1.969077E-1,0E0,2.0933257E-1,2.4996996E-3,0E0,0E0,0E0,0E0],"parents":[2147483647,0,0,1,1,3,3,4,4],"right_children":[2,4,-1,6,8,-1,-1,-1,-1],"split_conditions":[1E0,1E0,1.5938012E-2,1E0,2.6E0,-2.382034E-3,1.5553787E-2,1.54555775E-2,-0E0],"split_indices":[9,15,0,16,3,0,0,0,0],"split_type":[0,0,0,0,0,0,0,0,0],"sum_hessian":[1.027E3,9.85E2,4.2E1,9.39E2,4.6E1,8.98E2,4.1E1,4.5E1,1E0],"tree_param":{"num_deleted":"0","num_feature":"38","num_nodes":"9","size_leaf_vector":"1"}},{"base_weights":[1.6874928E-3,9.579767E-3,-1.6957676E-2,1.9822363E-2,-8.506465E-3,-0E0,-2.1828122E-2,3.8222899E-3,2.2256874E-2,-2.9547643E-3,5.0617903E-3,8.7303354E-4,-0E0,-6.4012758E-3,5.8727554E-4],"categories":[],"categories_nodes":[],"categories_segments":[],"categories_sizes":[],"default_left":[0,0,0,0,0,0,0,0,0,0,0,0,0,0,0],"id":45,"left_children":[1,3,5,7,9,11,13,-1,-1,-1,-1,-1,-1,-1,-1],"loss_changes":[1.4957553E-1,1.4663488E-1,3.6044247E-2,9.777276E-2,1.9223416E-2,4.283158E-4,3.6134064E-2,0E0,0E0,0E0,0E0,0E0,0E0,0E0,0E0],"parents":[2147483647,0,0,1,1,2,2,3,3,4,4,5,5,6,6],"right_children":[2,4,6,8,10,12,14,-1,-1,-1,-1,-1,-1,-1,-1],"split_conditions":[1E0,1E0,5.1E4,1E0,1E0,1E0,1E0,3.8222899E-3,2.2256874E-2,-2.9547643E-3,5.0617903E-3,8.7303354E-4,-0E0,-6.4012758E-3,5.8727554E-4],"split_indices":[37,34,2,20,10,8,10,0,0,0,0,0,0,0,0],"split_type":[0,0,0,0,0,0,0,0,0,0,0,0,0,0,0],"sum_hessian":[1.045E3,7.56E2,2.89E2,5.03E2,2.53E2,3.9E1,2.5E2,4.8E2,2.3E1,2.45E2,8E0,3.5E1,4E0,2.37E2,1.3E1],"tree_param":{"num_deleted":"0","num_feature":"38","num_nodes":"15","size_leaf_vector":"1"}},{"base_weights":[2.3032725E-3,-0E0,6.043201E-2,1.3464768E-2,-1.2099852E-2,-0E0,1.5497761E-2,2.348604E-3,1.5224574E-2,-3.8980348E-3,8.000047E-3],"categories":[],"categories_nodes":[],"categories_segments":[],"categories_sizes":[],"default_left":[0,0,0,0,0,0,0,0,0,0,0],"id":46,"left_children":[1,3,5,7,9,-1,-1,-1,-1,-1,-1],"loss_changes":[1.4845489E-1,1.6410494E-1,1.3010204E-4,5.063975E-2,7.288701E-2,0E0,0E0,0E0,0E0,0E0,0E0],"parents":[2147483647,0,0,1,1,2,2,3,3,4,4],"right_children":[2,4,6,8,10,-1,-1,-1,-1,-1,-1],"split_conditions":[1E0,1.01E5,1.875E1,1E0,1E0,-0E0,1.5497761E-2,2.348604E-3,1.5224574E-2,-3.8980348E-3,8.000047E-3],"split_indices":[23,2,1,16,4,0,0,0,0,0,0],"split_type":[0,0,0,0,0,0,0,0,0,0,0],"sum_hessian":[1.05E3,1.008E3,4.2E1,4.72E2,5.36E2,2E0,4E1,4.46E2,2.6E1,5.09E2,2.7E1],"tree_param":{"num_deleted":"0","num_feature":"38","num_nodes":"11","size_leaf_vector":"1"}},{"base_weights":[-0E0,-2.308092E-3,1.4589286E-2,-5.304729E-3,1.3226102E-2,-2.1169693E-3,1.37082655E-2],"categories":[],"categories_nodes":[],"categories_segments":[],"categories_sizes":[],"default_left":[0,0,0,0,0,0,0],"id":47,"left_children":[1,3,-1,5,-1,-1,-1],"loss_changes":[1.5230201E-1,1.4295116E-1,0E0,1.6064642E-1,0E0,0E0,0E0],"parents":[2147483647,0,0,1,1,3,3],"right_children":[2,4,-1,6,-1,-1,-1],"split_conditions":[1E0,1E0,1.4589286E-2,1E0,1.3226102E-2,-2.1169693E-3,1.37082655E-2],"split_indices":[24,22,0,14,0,0,0],"split_type":[0,0,0,0,0,0,0],"sum_hessian":[1.073E3,1.03E3,4.3E1,9.87E2,4.3E1,9.47E2,4E1],"tree_param":{"num_deleted":"0","num_feature":"38","num_nodes":"7","size_leaf_vector":"1"}},{"base_weights":[-0E0,-6.08317E-3,2.5846811E-2,-8.964371E-3,5.5727415E-2,3.211658E-2,-5.367988E-3,-4.0148427E-3,2.111624E-3,-0E0,1.4250081E-2,9.300304E-3,-1.3233095E-3],"categories":[],"categories_nodes":[],"categories_segments":[],"categories_sizes":[],"default_left":[0,0,0,0,0,0,0,0,0,0,0,0,0],"id":48,"left_children":[1,3,5,7,9,11,-1,-1,-1,-1,-1,-1,-1],"loss_changes":[1.7254011E-1,1.21329196E-1,6.919323E-2,1.0354246E-1,6.602183E-4,5.589904E-2,0E0,0E0,0E0,0E0,0E0,0E0,0E0],"parents":[2147483647,0,0,1,1,2,2,3,3,4,4,5,5],"right_children":[2,4,6,8,10,12,-1,-1,-1,-1,-1,-1,-1],"split_conditions":[1E0,1E0,1E0,1E0,6.55E-1,1E0,-5.367988E-3,-4.0148427E-3,2.111624E-3,-0E0,1.4250081E-2,9.300304E-3,-1.3233095E-3],"split_indices":[33,12,5,29,0,7,0,0,0,0,0,0,0],"split_type":[0,0,0,0,0,0,0,0,0,0,0,0,0],"sum_hessian":[1.044E3,8.32E2,2.12E2,8.04E2,2.8E1,1.98E2,1.4E1,5.95E2,2.09E2,1E0,2.7E1,1.88E2,1E1],"tree_param":{"num_deleted":"0","num_feature":"38","num_nodes":"13","size_leaf_vector":"1"}},{"base_weights":[1.9259169E-4,-1.2223012E-3,1.5110463E-2,-3.9252527E-3,1.3409363E-2,-1.7789139E-3,1.0007991E-2],"categories":[],"categories_nodes":[],"categories_segments":[],"categories_sizes":[],"default_left":[0,0,0,0,0,0,0],"id":49,"left_children":[1,3,-1,5,-1,-1,-1],"loss_changes":[1.2247561E-1,1.20192714E-1,0E0,1.1640288E-1,0E0,0E0,0E0],"parents":[2147483647,0,0,1,1,3,3],"right_children":[2,4,-1,6,-1,-1,-1],"split_conditions":[1E0,1E0,1.5110463E-2,1E0,1.3409363E-2,-1.7789139E-3,1.0007991E-2],"split_indices":[27,10,0,20,0,0,0],"split_type":[0,0,0,0,0,0,0],"sum_hessian":[1.037E3,1.004E3,3.3E1,9.67E2,3.7E1,9.14E2,5.3E1],"tree_param":{"num_deleted":"0","num_feature":"38","num_nodes":"7","size_leaf_vector":"1"}},{"base_weights":[8.4832776E-4,-8.1924384E-4,4.9522717E-2,-3.7285134E-3,1.20250285E-2,1.2560733E-2,-0E0,-1.7116256E-3,1.2219928E-2],"categories":[],"categories_nodes":[],"categories_segments":[],"categories_sizes":[],"default_left":[0,0,0,0,0,0,0,0,0],"id":50,"left_children":[1,3,5,7,-1,-1,-1,-1,-1],"loss_changes":[1.1316372E-1,1.1699459E-1,6.207898E-4,1.324801E-1,0E0,0E0,0E0,0E0,0E0],"parents":[2147483647,0,0,1,1,2,2,3,3],"right_children":[2,4,6,8,-1,-1,-1,-1,-1],"split_conditions":[1E0,1E0,2.6E0,1E0,1.20250285E-2,1.2560733E-2,-0E0,-1.7116256E-3,1.2219928E-2],"split_indices":[15,4,3,23,0,0,0,0,0],"split_type":[0,0,0,0,0,0,0,0,0],"sum_hessian":[1.048E3,1.002E3,4.6E1,9.57E2,4.5E1,4.5E1,1E0,9.14E2,4.3E1],"tree_param":{"num_deleted":"0","num_feature":"38","num_nodes":"9","size_leaf_vector":"1"}},{"base_weights":[5.32469E-4,-8.831463E-4,1.2992305E-2,-3.6325585E-3,4.8892215E-2,-1.654445E-3,1.1817746E-2,1.4150092E-2,-0E0],"categories":[],"categories_nodes":[],"categories_segments":[],"categories_sizes":[],"default_left":[0,0,0,0,0,0,0,0,0],"id":51,"left_children":[1,3,-1,5,7,-1,-1,-1,-1],"loss_changes":[1.0613789E-1,1.1286814E-1,0E0,1.2416541E-1,8.500531E-3,0E0,0E0,0E0,0E0],"parents":[2147483647,0,0,1,1,3,3,4,4],"right_children":[2,4,-1,6,8,-1,-1,-1,-1],"split_conditions":[1E0,1E0,1.2992305E-2,1E0,1E0,-1.654445E-3,1.1817746E-2,1.4150092E-2,-0E0],"split_indices":[27,9,0,24,37,0,0,0,0],"split_type":[0,0,0,0,0,0,0,0,0],"sum_hessian":[1.054E3,1.015E3,3.9E1,9.73E2,4.2E1,9.3E2,4.3E1,3.4E1,8E0],"tree_param":{"num_deleted":"0","num_feature":"38","num_nodes":"9","size_leaf_vector":"1"}},{"base_weights":[2.6929722E-4,-1.3632418E-3,4.663685E-2,-3.7814074E-3,5.119983E-2,4.8872586E-2,-0E0,-1.6537418E-3,1.1396584E-2,1.3681176E-2,-0E0,-0E0,1.2592295E-2],"categories":[],"categories_nodes":[],"categories_segments":[],"categories_sizes":[],"default_left":[0,0,0,0,0,0,0,0,0,0,0,0,0],"id":52,"left_children":[1,3,5,7,9,11,-1,-1,-1,-1,-1,-1,-1],"loss_changes":[1.0659107E-1,1.017317E-1,3.1215027E-3,1.14516936E-1,3.6343709E-3,1.4696866E-3,0E0,0E0,0E0,0E0,0E0,0E0,0E0],"parents":[2147483647,0,0,1,1,2,2,3,3,4,4,5,5],"right_children":[2,4,6,8,10,12,-1,-1,-1,-1,-1,-1,-1],"split_conditions":[1E0,1E0,2.58E0,1E0,1E0,2.23E0,-0E0,-1.6537418E-3,1.1396584E-2,1.3681176E-2,-0E0,-0E0,1.2592295E-2],"split_indices":[16,12,3,22,31,3,0,0,0,0,0,0,0],"split_type":[0,0,0,0,0,0,0,0,0,0,0,0,0],"sum_hessian":[1.063E3,1.015E3,4.8E1,9.81E2,3.4E1,4.5E1,3E0,9.39E2,4.2E1,3.1E1,3E0,2E0,4.3E1],"tree_param":{"num_deleted":"0","num_feature":"38","num_nodes":"13","size_leaf_vector":"1"}},{"base_weights":[8.634192E-4,2.7373418E-2,-3.2316379E-3,3.152965E-2,-0E0,-5.9969253E-3,3.8072526E-2,8.872945E-3,-0E0,-2.157615E-3,9.366428E-3,1.0054907E-2,-0E0],"categories":[],"categories_nodes":[],"categories_segments":[],"categories_sizes":[],"default_left":[0,0,0,0,0,0,0,0,0,0,0,0,0],"id":53,"left_children":[1,3,5,7,-1,9,11,-1,-1,-1,-1,-1,-1],"loss_changes":[1.2859198E-1,3.3248633E-2,8.39073E-2,2.6811436E-2,0E0,8.079409E-2,2.306588E-3,0E0,0E0,0E0,0E0,0E0,0E0],"parents":[2147483647,0,0,1,1,2,2,3,3,5,5,6,6],"right_children":[2,4,6,8,-1,10,12,-1,-1,-1,-1,-1,-1],"split_conditions":[5.1E4,1E0,1E0,1E0,-0E0,1E0,1.474E0,8.872945E-3,-0E0,-2.157615E-3,9.366428E-3,1.0054907E-2,-0E0],"split_indices":[2,11,4,5,0,23,0,0,0,0,0,0,0],"split_type":[0,0,0,0,0,0,0,0,0,0,0,0,0],"sum_hessian":[1.056E3,1.6E2,8.96E2,1.54E2,6E0,8.53E2,4.3E1,1.43E2,1.1E1,8.17E2,3.6E1,4E1,3E0],"tree_param":{"num_deleted":"0","num_feature":"38","num_nodes":"13","size_leaf_vector":"1"}},{"base_weights":[5.666877E-4,-6.3487346E-4,4.98872E-2,-3.2976263E-3,4.425357E-2,1.3776266E-2,-0E0,-1.533686E-3,9.61664E-3,1.1681347E-2,-0E0],"categories":[],"categories_nodes":[],"categories_segments":[],"categories_sizes":[],"default_left":[0,0,0,0,0,0,0,0,0,0,0],"id":54,"left_children":[1,3,5,7,9,-1,-1,-1,-1,-1,-1],"loss_changes":[9.0101965E-2,9.6559376E-2,1.4600456E-3,9.503944E-2,3.248416E-3,0E0,0E0,0E0,0E0,0E0,0E0],"parents":[2147483647,0,0,1,1,2,2,3,3,4,4],"right_children":[2,4,6,8,10,-1,-1,-1,-1,-1,-1],"split_conditions":[1E0,1E0,1E0,1E0,1.481E0,1.3776266E-2,-0E0,-1.533686E-3,9.61664E-3,1.1681347E-2,-0E0],"split_indices":[10,9,31,15,0,0,0,0,0,0,0],"split_type":[0,0,0,0,0,0,0,0,0,0,0],"sum_hessian":[1.041E3,1.005E3,3.6E1,9.61E2,4.4E1,3E1,6E0,9.13E2,4.8E1,4.1E1,3E0],"tree_param":{"num_deleted":"0","num_feature":"38","num_nodes":"11","size_leaf_vector":"1"}},{"base_weights":[-0E0,2.2250665E-3,-3.828992E-2,4.453409E-3,-1.1301317E-2,-1.1237081E-2,-0E0,-0E0,5.038857E-3],"categories":[],"categories_nodes":[],"categories_segments":[],"categories_sizes":[],"default_left":[0,0,0,0,0,0,0,0,0],"id":55,"left_children":[1,3,5,7,-1,-1,-1,-1,-1],"loss_changes":[7.5567916E-2,8.1877455E-2,2.3455918E-3,6.6535935E-2,0E0,0E0,0E0,0E0,0E0],"parents":[2147483647,0,0,1,1,2,2,3,3],"right_children":[2,4,6,8,-1,-1,-1,-1,-1],"split_conditions":[1E0,1E0,1E0,1E0,-1.1301317E-2,-1.1237081E-2,-0E0,-0E0,5.038857E-3],"split_indices":[25,17,33,36,0,0,0,0,0],"split_type":[0,0,0,0,0,0,0,0,0],"sum_hessian":[1.045E3,9.97E2,4.8E1,9.64E2,3.3E1,3.6E1,1.2E1,7.53E2,2.11E2],"tree_param":{"num_deleted":"0","num_feature":"38","num_nodes":"9","size_leaf_vector":"1"}},{"base_weights":[-0E0,3.985681E-3,-1.8299714E-2,1.0332725E-2,-1.12253E-2,-2.0772737E-2,-0E0,5.365657E-3,-0E0,-0E0,-3.7648918E-3,-5.8904598E-3,-0E0],"categories":[],"categories_nodes":[],"categories_segments":[],"categories_sizes":[],"default_left":[0,0,0,0,0,0,0,0,0,0,0,0,0],"id":56,"left_children":[1,3,5,7,9,11,-1,-1,-1,-1,-1,-1,-1],"loss_changes":[8.1800364E-2,8.110305E-2,1.5845321E-2,6.417218E-2,1.3483817E-2,1.7872557E-2,0E0,0E0,0E0,0E0,0E0,0E0,0E0],"parents":[2147483647,0,0,1,1,2,2,3,3,4,4,5,5],"right_children":[2,4,6,8,10,12,-1,-1,-1,-1,-1,-1,-1],"split_conditions":[1E0,1E0,1E0,1.01E5,5.3E4,1E0,-0E0,5.365657E-3,-0E0,-0E0,-3.7648918E-3,-5.8904598E-3,-0E0],"split_indices":[31,32,16,2,2,4,0,0,0,0,0,0,0],"split_type":[0,0,0,0,0,0,0,0,0,0,0,0,0],"sum_hessian":[1.049E3,8.45E2,2.04E2,6.23E2,2.22E2,1.95E2,9E0,2.84E2,3.39E2,3.9E1,1.83E2,1.84E2,1.1E1],"tree_param":{"num_deleted":"0","num_feature":"38","num_nodes":"13","size_leaf_vector":"1"}},{"base_weights":[2.6432076E-4,-8.357202E-4,1.0924906E-2,-3.1038444E-3,3.800893E-2,-1.3705431E-3,9.8101795E-3,9.849769E-3,-0E0],"categories":[],"categories_nodes":[],"categories_segments":[],"categories_sizes":[],"default_left":[0,0,0,0,0,0,0,0,0],"id":57,"left_children":[1,3,-1,5,7,-1,-1,-1,-1],"loss_changes":[7.3406436E-2,6.64315E-2,0E0,7.52438E-2,1.1289231E-3,0E0,0E0,0E0,0E0],"parents":[2147483647,0,0,1,1,3,3,4,4],"right_children":[2,4,-1,6,8,-1,-1,-1,-1],"split_conditions":[1E0,1E0,1.0924906E-2,1E0,1.602E0,-1.3705431E-3,9.8101795E-3,9.849769E-3,-0E0],"split_indices":[14,24,0,10,0,0,0,0,0],"split_type":[0,0,0,0,0,0,0,0,0],"sum_hessian":[1.02E3,9.82E2,3.8E1,9.42E2,4E1,9.05E2,3.7E1,3.8E1,2E0],"tree_param":{"num_deleted":"0","num_feature":"38","num_nodes":"9","size_leaf_vector":"1"}},{"base_weights":[-0E0,1.955895E-3,-1.0680483E-2,4.472106E-3,-8.6595E-3,1.6872025E-3,-1.0035129E-2],"categories":[],"categories_nodes":[],"categories_segments":[],"categories_sizes":[],"default_left":[0,0,0,0,0,0,0],"id":58,"left_children":[1,3,-1,5,-1,-1,-1],"loss_changes":[6.978303E-2,7.541542E-2,0E0,7.784818E-2,0E0,0E0,0E0],"parents":[2147483647,0,0,1,1,3,3],"right_children":[2,4,-1,6,-1,-1,-1],"split_conditions":[1E0,1E0,-1.0680483E-2,1E0,-8.6595E-3,1.6872025E-3,-1.0035129E-2],"split_indices":[21,8,0,18,0,0,0],"split_type":[0,0,0,0,0,0,0],"sum_hessian":[1.044E3,1.008E3,3.6E1,9.58E2,5E1,9.24E2,3.4E1],"tree_param":{"num_deleted":"0","num_feature":"38","num_nodes":"7","size_leaf_vector":"1"}},{"base_weights":[5.255729E-4,-7.2791555E-4,3.7022233E-2,-3.4162535E-3,3.244034E-2,4.2768188E-2,-0E0,-1.4336312E-3,8.695914E-3,1.0602143E-2,-0E0,-0E0,1.0845946E-2],"categories":[],"categories_nodes":[],"categories_segments":[],"categories_sizes":[],"default_left":[0,0,0,0,0,0,0,0,0,0,0,0,0],"id":59,"left_children":[1,3,5,7,9,11,-1,-1,-1,-1,-1,-1,-1],"loss_changes":[7.0390694E-2,7.5144805E-2,1.5131384E-3,6.89085E-2,1.854068E-2,8.670986E-5,0E0,0E0,0E0,0E0,0E0,0E0,0E0],"parents":[2147483647,0,0,1,1,2,2,3,3,4,4,5,5],"right_children":[2,4,6,8,10,12,-1,-1,-1,-1,-1,-1,-1],"split_conditions":[1E0,1E0,1E0,1E0,1E0,2.21E0,-0E0,-1.4336312E-3,8.695914E-3,1.0602143E-2,-0E0,-0E0,1.0845946E-2],"split_indices":[16,20,34,22,32,3,0,0,0,0,0,0,0],"split_type":[0,0,0,0,0,0,0,0,0,0,0,0,0],"sum_hessian":[1.081E3,1.03E3,5.1E1,9.69E2,6.1E1,3.9E1,1.2E1,9.28E2,4.1E1,4.6E1,1.5E1,1E0,3.8E1],"tree_param":{"num_deleted":"0","num_feature":"38","num_nodes":"13","size_leaf_vector":"1"}},{"base_weights":[6.3543837E-4,-3.294946E-4,8.883881E-3,-2.4379727E-3,8.259735E-3,-1.1698068E-3,8.333024E-3],"categories":[],"categories_nodes":[],"categories_segments":[],"categories_sizes":[],"default_left":[0,0,0,0,0,0,0],"id":60,"left_children":[1,3,-1,5,-1,-1,-1],"loss_changes":[5.5386454E-2,5.2632548E-2,0E0,6.0002226E-2,0E0,0E0,0E0],"parents":[2147483647,0,0,1,1,3,3],"right_children":[2,4,-1,6,-1,-1,-1],"split_conditions":[1E0,1E0,8.883881E-3,1E0,8.259735E-3,-1.1698068E-3,8.333024E-3],"split_indices":[4,23,0,9,0,0,0],"split_type":[0,0,0,0,0,0,0],"sum_hessian":[1.043E3,9.99E2,4.4E1,9.56E2,4.3E1,9.15E2,4.1E1],"tree_param":{"num_deleted":"0","num_feature":"38","num_nodes":"7","size_leaf_vector":"1"}},{"base_weights":[1.4028011E-4,-6.3607213E-4,4.153115E-2,-4.9247984E-3,1.2063443E-2,1.093066E-2,-0E0,-3.0690685E-3,2.0352113E-3,6.511667E-3,-0E0],"categories":[],"categories_nodes":[],"categories_segments":[],"categories_sizes":[],"default_left":[0,0,0,0,0,0,0,0,0,0,0],"id":61,"left_children":[1,3,5,7,9,-1,-1,-1,-1,-1,-1],"loss_changes":[5.761667E-2,5.1785283E-2,3.7590042E-4,7.922054E-2,4.457362E-2,0E0,0E0,0E0,0E0,0E0,0E0],"parents":[2147483647,0,0,1,1,2,2,3,3,4,4],"right_children":[2,4,6,8,10,-1,-1,-1,-1,-1,-1],"split_conditions":[1E0,1E0,1.81E5,1E0,1.05E5,1.093066E-2,-0E0,-3.0690685E-3,2.0352113E-3,6.511667E-3,-0E0],"split_indices":[27,36,2,35,2,0,0,0,0,0,0],"split_type":[0,0,0,0,0,0,0,0,0,0,0],"sum_hessian":[1.059E3,1.026E3,3.3E1,8.01E2,2.25E2,3E1,3E0,5.41E2,2.6E2,1.14E2,1.11E2],"tree_param":{"num_deleted":"0","num_feature":"38","num_nodes":"11","size_leaf_vector":"1"}},{"base_weights":[-0E0,-1.529116E-3,4.5501385E-2,-3.5023417E-3,3.5049666E-2,4.6147678E-2,-0E0,-1.418537E-3,8.241344E-3,1.0588432E-2,-0E0,1.1871601E-2,-0E0],"categories":[],"categories_nodes":[],"categories_segments":[],"categories_sizes":[],"default_left":[0,0,0,0,0,0,0,0,0,0,0,0,0],"id":62,"left_children":[1,3,5,7,9,11,-1,-1,-1,-1,-1,-1,-1],"loss_changes":[8.141836E-2,5.5324137E-2,1.3160706E-4,6.181392E-2,1.2141839E-3,2.9936433E-5,0E0,0E0,0E0,0E0,0E0,0E0,0E0],"parents":[2147483647,0,0,1,1,2,2,3,3,4,4,5,5],"right_children":[2,4,6,8,10,12,-1,-1,-1,-1,-1,-1,-1],"split_conditions":[1E0,1E0,1.454E0,1E0,1E0,2.54E0,-0E0,-1.418537E-3,8.241344E-3,1.0588432E-2,-0E0,1.1871601E-2,-0E0],"split_indices":[12,14,0,27,32,3,0,0,0,0,0,0,0],"split_type":[0,0,0,0,0,0,0,0,0,0,0,0,0],"sum_hessian":[1.056E3,1.018E3,3.8E1,9.81E2,3.7E1,3.7E1,1E0,9.41E2,4E1,2.6E1,1.1E1,3.5E1,2E0],"tree_param":{"num_deleted":"0","num_feature":"38","num_nodes":"13","size_leaf_vector":"1"}},{"base_weights":[1.2505158E-3,-0E0,3.375788E-2,-1.6149865E-3,8.527353E-3,8.570281E-3,-0E0,-9.0014754E-4,7.1812184E-3],"categories":[],"categories_nodes":[],"categories_segments":[],"categories_sizes":[],"default_left":[0,0,0,0,0,0,0,0,0],"id":63,"left_children":[1,3,5,7,-1,-1,-1,-1,-1],"loss_changes":[5.326612E-2,4.453165E-2,4.5593083E-4,4.3327622E-2,0E0,0E0,0E0,0E0,0E0],"parents":[2147483647,0,0,1,1,2,2,3,3],"right_children":[2,4,6,8,-1,-1,-1,-1,-1],"split_conditions":[1E0,1E0,2.6E0,1E0,8.527353E-3,8.570281E-3,-0E0,-9.0014754E-4,7.1812184E-3],"split_indices":[15,12,3,22,0,0,0,0,0],"split_type":[0,0,0,0,0,0,0,0,0],"sum_hessian":[1.045E3,9.97E2,4.8E1,9.61E2,3.6E1,4.7E1,1E0,9.2E2,4.1E1],"tree_param":{"num_deleted":"0","num_feature":"38","num_nodes":"9","size_leaf_vector":"1"}},{"base_weights":[1.3258329E-4,-7.687964E-4,3.1329263E-2,-2.8962113E-3,2.8356956E-2,-0E0,7.948128E-3,-1.2567842E-3,7.2423774E-3,7.1883947E-3,-0E0],"categories":[],"categories_nodes":[],"categories_segments":[],"categories_sizes":[],"default_left":[0,0,0,0,0,0,0,0,0,0,0],"id":64,"left_children":[1,3,5,7,9,-1,-1,-1,-1,-1,-1],"loss_changes":[4.6872564E-2,4.6875633E-2,2.9802322E-4,5.018702E-2,2.2680312E-4,0E0,0E0,0E0,0E0,0E0,0E0],"parents":[2147483647,0,0,1,1,2,2,3,3,4,4],"right_children":[2,4,6,8,10,-1,-1,-1,-1,-1,-1],"split_conditions":[1E0,1E0,2.011E1,1E0,2.6E0,-0E0,7.948128E-3,-1.2567842E-3,7.2423774E-3,7.1883947E-3,-0E0],"split_indices":[16,15,1,9,3,0,0,0,0,0,0],"split_type":[0,0,0,0,0,0,0,0,0,0,0],"sum_hessian":[1.04E3,9.93E2,4.7E1,9.44E2,4.9E1,1E0,4.6E1,9.02E2,4.2E1,4.8E1,1E0],"tree_param":{"num_deleted":"0","num_feature":"38","num_nodes":"11","size_leaf_vector":"1"}},{"base_weights":[-0E0,-1.2039099E-3,3.296386E-2,-3.4380585E-3,3.176801E-2,1.075766E-2,-0E0,-1.3839179E-3,8.450248E-3,8.969022E-3,-0E0],"categories":[],"categories_nodes":[],"categories_segments":[],"categories_sizes":[],"default_left":[0,0,0,0,0,0,0,0,0,0,0],"id":65,"left_children":[1,3,5,7,9,-1,-1,-1,-1,-1,-1],"loss_changes":[5.8145855E-2,5.743731E-2,1.2036517E-2,5.808325E-2,1.6608089E-4,0E0,0E0,0E0,0E0,0E0,0E0],"parents":[2147483647,0,0,1,1,2,2,3,3,4,4],"right_children":[2,4,6,8,10,-1,-1,-1,-1,-1,-1],"split_conditions":[1E0,1E0,1E0,1E0,1E0,1.075766E-2,-0E0,-1.3839179E-3,8.450248E-3,8.969022E-3,-0E0],"split_indices":[20,4,37,10,37,0,0,0,0,0,0],"split_type":[0,0,0,0,0,0,0,0,0,0,0],"sum_hessian":[1.053E3,1.001E3,5.2E1,9.54E2,4.7E1,3.7E1,1.5E1,9.18E2,3.6E1,3.7E1,1E1],"tree_param":{"num_deleted":"0","num_feature":"38","num_nodes":"11","size_leaf_vector":"1"}},{"base_weights":[-0E0,-1.2696804E-3,3.477378E-2,-3.2468971E-3,6.1469604E-3,-0E0,9.036268E-3,-1.3034081E-3,7.1082376E-3],"categories":[],"categories_nodes":[],"categories_segments":[],"categories_sizes":[],"default_left":[0,0,0,0,0,0,0,0,0],"id":66,"left_children":[1,3,5,7,-1,-1,-1,-1,-1],"loss_changes":[5.381604E-2,3.8666185E-2,1.9995123E-4,4.5505892E-2,0E0,0E0,0E0,0E0,0E0],"parents":[2147483647,0,0,1,1,2,2,3,3],"right_children":[2,4,6,8,-1,-1,-1,-1,-1],"split_conditions":[1E0,1E0,2.27E0,1E0,6.1469604E-3,-0E0,9.036268E-3,-1.3034081E-3,7.1082376E-3],"split_indices":[24,16,3,23,0,0,0,0,0],"split_type":[0,0,0,0,0,0,0,0,0],"sum_hessian":[1.04E3,9.97E2,4.3E1,9.47E2,5E1,3E0,4E1,9.09E2,3.8E1],"tree_param":{"num_deleted":"0","num_feature":"38","num_nodes":"9","size_leaf_vector":"1"}},{"base_weights":[1.2890875E-4,-4.8662012E-4,8.063507E-3,2.6205042E-4,-2.4690405E-2,-5.742644E-4,3.5744552E-3,-0E0,-7.088684E-3],"categories":[],"categories_nodes":[],"categories_segments":[],"categories_sizes":[],"default_left":[0,0,0,0,0,0,0,0,0],"id":67,"left_children":[1,3,-1,5,7,-1,-1,-1,-1],"loss_changes":[3.8836006E-2,3.224451E-2,0E0,4.096314E-2,1.4407411E-3,0E0,0E0,0E0,0E0],"parents":[2147483647,0,0,1,1,3,3,4,4],"right_children":[2,4,-1,6,8,-1,-1,-1,-1],"split_conditions":[1E0,1E0,8.063507E-3,1E0,4.8E4,-5.742644E-4,3.5744552E-3,-0E0,-7.088684E-3],"split_indices":[14,5,0,33,2,0,0,0,0],"split_type":[0,0,0,0,0,0,0,0,0],"sum_hessian":[1.039E3,1.002E3,3.7E1,9.49E2,5.3E1,7.68E2,1.81E2,1.1E1,4.2E1],"tree_param":{"num_deleted":"0","num_feature":"38","num_nodes":"9","size_leaf_vector":"1"}},{"base_weights":[1.498214E-4,1.6144853E-2,-2.0701783E-3,2.2350637E-2,-0E0,-3.803963E-3,2.7064007E-2,6.7969966E-3,-0E0,-1.4558607E-3,5.2066604E-3,8.46444E-3,-0E0],"categories":[],"categories_nodes":[],"categories_segments":[],"categories_sizes":[],"default_left":[0,0,0,0,0,0,0,0,0,0,0,0,0],"id":68,"left_children":[1,3,5,7,-1,9,11,-1,-1,-1,-1,-1,-1],"loss_changes":[4.526873E-2,2.0042352E-2,3.142169E-2,2.4950951E-2,0E0,3.3845037E-2,1.4029108E-3,0E0,0E0,0E0,0E0,0E0,0E0],"parents":[2147483647,0,0,1,1,2,2,3,3,5,5,6,6],"right_children":[2,4,6,8,-1,10,12,-1,-1,-1,-1,-1,-1],"split_conditions":[5.1E4,1E0,1E0,1E0,-0E0,1E0,1E0,6.7969966E-3,-0E0,-1.4558607E-3,5.2066604E-3,8.46444E-3,-0E0],"split_indices":[2,34,12,18,0,4,32,0,0,0,0,0,0],"split_type":[0,0,0,0,0,0,0,0,0,0,0,0,0],"sum_hessian":[1.046E3,1.59E2,8.87E2,1.23E2,3.6E1,8.56E2,3.1E1,1.17E2,6E0,8.13E2,4.3E1,2.1E1,1E1],"tree_param":{"num_deleted":"0","num_feature":"38","num_nodes":"13","size_leaf_vector":"1"}},{"base_weights":[2.1190331E-3,5.2986657E-3,-8.646488E-3,1.082578E-2,-6.9096033E-3,-0E0,-1.1142248E-2,4.6326653E-3,5.9719477E-4,-2.572537E-3,-0E0,-3.1625817E-3,-0E0],"categories":[],"categories_nodes":[],"categories_segments":[],"categories_sizes":[],"default_left":[0,0,0,0,0,0,0,0,0,0,0,0,0],"id":69,"left_children":[1,3,5,7,9,-1,11,-1,-1,-1,-1,-1,-1],"loss_changes":[3.4025908E-2,5.9772678E-2,7.428636E-3,2.8126493E-2,7.3883375E-3,0E0,5.2670687E-3,0E0,0E0,0E0,0E0,0E0,0E0],"parents":[2147483647,0,0,1,1,2,2,3,3,4,4,6,6],"right_children":[2,4,6,8,10,-1,12,-1,-1,-1,-1,-1,-1],"split_conditions":[1E0,1E0,2.27E0,1.01E5,1E0,-0E0,1E0,4.6326653E-3,5.9719477E-4,-2.572537E-3,-0E0,-3.1625817E-3,-0E0],"split_indices":[31,32,3,2,35,0,9,0,0,0,0,0,0],"split_type":[0,0,0,0,0,0,0,0,0,0,0,0,0],"sum_hessian":[1.05E3,8.52E2,1.98E2,6.19E2,2.33E2,1.9E1,1.79E2,2.88E2,3.31E2,1.75E2,5.8E1,1.72E2,7E0],"tree_param":{"num_deleted":"0","num_feature":"38","num_nodes":"13","size_leaf_vector":"1"}},{"base_weights":[-0E0,-1.2177877E-3,2.3598908E-2,-2.9993327E-3,2.4367377E-2,2.978065E-2,-0E0,-1.2246621E-3,6.347629E-3,-0E0,6.327701E-3,8.635994E-3,-0E0],"categories":[],"categories_nodes":[],"categories_segments":[],"categories_sizes":[],"default_left":[0,0,0,0,0,0,0,0,0,0,0,0,0],"id":70,"left_children":[1,3,5,7,9,11,-1,-1,-1,-1,-1,-1,-1],"loss_changes":[2.9940335E-2,3.1961117E-2,7.1310718E-3,3.8187467E-2,6.564185E-4,1.5138239E-3,0E0,0E0,0E0,0E0,0E0,0E0,0E0],"parents":[2147483647,0,0,1,1,2,2,3,3,4,4,5,5],"right_children":[2,4,6,8,10,12,-1,-1,-1,-1,-1,-1,-1],"split_conditions":[1E0,1E0,1E0,1E0,2.6E4,1.46E5,-0E0,-1.2246621E-3,6.347629E-3,-0E0,6.327701E-3,8.635994E-3,-0E0],"split_indices":[20,23,32,24,2,2,0,0,0,0,0,0,0],"split_type":[0,0,0,0,0,0,0,0,0,0,0,0,0],"sum_hessian":[1.022E3,9.71E2,5.1E1,9.29E2,4.2E1,4E1,1.1E1,8.9E2,3.9E1,2E0,4E1,3.1E1,9E0],"tree_param":{"num_deleted":"0","num_feature":"38","num_nodes":"13","size_leaf_vector":"1"}},{"base_weights":[6.670463E-4,-0E0,8.713209E-3,-1.7124498E-3,7.535343E-3,-8.938321E-4,6.9181356E-3],"categories":[],"categories_nodes":[],"categories_segments":[],"categories_sizes":[],"default_left":[0,0,0,0,0,0,0],"id":71,"left_children":[1,3,-1,5,-1,-1,-1],"loss_changes":[4.341419E-2,3.565199E-2,0E0,3.8964633E-2,0E0,0E0,0E0],"parents":[2147483647,0,0,1,1,3,3],"right_children":[2,4,-1,6,-1,-1,-1],"split_conditions":[1E0,1E0,8.713209E-3,1E0,7.535343E-3,-8.938321E-4,6.9181356E-3],"split_indices":[27,22,0,10,0,0,0],"split_type":[0,0,0,0,0,0,0],"sum_hessian":[1.039E3,1.003E3,3.6E1,9.67E2,3.6E1,9.28E2,3.9E1],"tree_param":{"num_deleted":"0","num_feature":"38","num_nodes":"7","size_leaf_vector":"1"}},{"base_weights":[3.47161E-4,1.9484438E-3,-5.9832665E-3,3.6594192E-3,-4.6437467E-3,1.3844208E-3,-4.736947E-3],"categories":[],"categories_nodes":[],"categories_segments":[],"categories_sizes":[],"default_left":[0,0,0,0,0,0,0],"id":72,"left_children":[1,3,-1,5,-1,-1,-1],"loss_changes":[2.8415956E-2,2.7009437E-2,0E0,3.3032194E-2,0E0,0E0,0E0],"parents":[2147483647,0,0,1,1,3,3],"right_children":[2,4,-1,6,-1,-1,-1],"split_conditions":[1E0,1E0,-5.9832665E-3,1E0,-4.6437467E-3,1.3844208E-3,-4.736947E-3],"split_indices":[6,5,0,25,0,0,0],"split_type":[0,0,0,0,0,0,0],"sum_hessian":[1.057E3,1.014E3,4.3E1,9.62E2,5.2E1,9.12E2,5E1],"tree_param":{"num_deleted":"0","num_feature":"38","num_nodes":"7","size_leaf_vector":"1"}},{"base_weights":[-0E0,-8.946165E-4,2.3122761E-2,1.4389487E-3,-1.05442535E-2,2.4293294E-2,-0E0,1.6866896E-3,-1.3765584E-3,-3.1399634E-3,-0E0,7.0250593E-3,-0E0],"categories":[],"categories_nodes":[],"categories_segments":[],"categories_sizes":[],"default_left":[0,0,0,0,0,0,0,0,0,0,0,0,0],"id":73,"left_children":[1,3,5,7,9,11,-1,-1,-1,-1,-1,-1,-1],"loss_changes":[2.4942908E-2,2.7458759E-2,7.3684193E-4,2.8184954E-2,9.237146E-3,2.0544417E-3,0E0,0E0,0E0,0E0,0E0,0E0,0E0],"parents":[2147483647,0,0,1,1,2,2,3,3,4,4,5,5],"right_children":[2,4,6,8,10,12,-1,-1,-1,-1,-1,-1,-1],"split_conditions":[1E0,1E0,1.481E0,1E0,1E0,1E0,-0E0,1.6866896E-3,-1.3765584E-3,-3.1399634E-3,-0E0,7.0250593E-3,-0E0],"split_indices":[9,34,0,37,4,32,0,0,0,0,0,0,0],"split_type":[0,0,0,0,0,0,0,0,0,0,0,0,0],"sum_hessian":[1.031E3,9.86E2,4.5E1,7.46E2,2.4E2,4.2E1,3E0,4.7E2,2.76E2,2.28E2,1.2E1,3.4E1,8E0],"tree_param":{"num_deleted":"0","num_feature":"38","num_nodes":"13","size_leaf_vector":"1"}},{"base_weights":[3.6800985E-4,1.778823E-3,-2.649211E-2,3.4621991E-3,-1.8446852E-2,-2.7943024E-2,-0E0,1.247775E-3,-5.9947255E-3,-0E0,-4.741859E-3,-7.5821066E-3,-0E0],"categories":[],"categories_nodes":[],"categories_segments":[],"categories_sizes":[],"default_left":[0,0,0,0,0,0,0,0,0,0,0,0,0],"id":74,"left_children":[1,3,5,7,9,11,-1,-1,-1,-1,-1,-1,-1],"loss_changes":[2.5670383E-2,2.6140733E-2,1.7604325E-3,2.961663E-2,2.693776E-4,6.16312E-4,0E0,0E0,0E0,0E0,0E0,0E0,0E0],"parents":[2147483647,0,0,1,1,2,2,3,3,4,4,5,5],"right_children":[2,4,6,8,10,12,-1,-1,-1,-1,-1,-1,-1],"split_conditions":[1E0,1E0,2.694E1,1E0,1.994E1,1E0,-0E0,1.247775E-3,-5.9947255E-3,-0E0,-4.741859E-3,-7.5821066E-3,-0E0],"split_indices":[18,7,1,17,1,30,0,0,0,0,0,0,0],"split_type":[0,0,0,0,0,0,0,0,0,0,0,0,0],"sum_hessian":[1.053E3,1.021E3,3.2E1,9.69E2,5.2E1,3.1E1,1E0,9.38E2,3.1E1,2E0,5E1,2.7E1,4E0],"tree_param":{"num_deleted":"0","num_feature":"38","num_nodes":"13","size_leaf_vector":"1"}},{"base_weights":[-0E0,-8.311821E-4,6.0829744E-3,-2.4264248E-3,1.913177E-2,-9.962457E-4,5.7680863E-3,-0E0,5.642246E-3],"categories":[],"categories_nodes":[],"categories_segments":[],"categories_sizes":[],"default_left":[0,0,0,0,0,0,0,0,0],"id":75,"left_children":[1,3,-1,5,7,-1,-1,-1,-1],"loss_changes":[2.208424E-2,2.2610767E-2,0E0,2.7237484E-2,2.2907574E-3,0E0,0E0,0E0,0E0],"parents":[2147483647,0,0,1,1,3,3,4,4],"right_children":[2,4,-1,6,8,-1,-1,-1,-1],"split_conditions":[1E0,1E0,6.0829744E-3,1E0,6.2E4,-9.962457E-4,5.7680863E-3,-0E0,5.642246E-3],"split_indices":[14,15,0,12,2,0,0,0,0],"split_type":[0,0,0,0,0,0,0,0,0],"sum_hessian":[1.048E3,1.012E3,3.6E1,9.64E2,4.8E1,9.3E2,3.4E1,9E0,3.9E1],"tree_param":{"num_deleted":"0","num_feature":"38","num_nodes":"9","size_leaf_vector":"1"}},{"base_weights":[1.2050028E-4,1.5213353E-3,-2.2437256E-2,-3.09148E-4,1.1930901E-2,-0E0,-5.6985416E-3,1.2695021E-3,-1.4510691E-3,3.9139027E-3,-6.993481E-5],"categories":[],"categories_nodes":[],"categories_segments":[],"categories_sizes":[],"default_left":[0,0,0,0,0,0,0,0,0,0,0],"id":76,"left_children":[1,3,5,7,9,-1,-1,-1,-1,-1,-1],"loss_changes":[2.103809E-2,2.594918E-2,5.210936E-5,2.4430089E-2,1.7842842E-2,0E0,0E0,0E0,0E0,0E0,0E0],"parents":[2147483647,0,0,1,1,2,2,3,3,4,4],"right_children":[2,4,6,8,10,-1,-1,-1,-1,-1,-1],"split_conditions":[1E0,1E0,8.16E-1,1.01E5,1E0,-0E0,-5.6985416E-3,1.2695021E-3,-1.4510691E-3,3.9139027E-3,-6.993481E-5],"split_indices":[21,33,0,2,18,0,0,0,0,0,0],"split_type":[0,0,0,0,0,0,0,0,0,0,0],"sum_hessian":[1.047E3,1.01E3,3.7E1,8.12E2,1.98E2,1E0,3.6E1,3.57E2,4.55E2,1.88E2,1E1],"tree_param":{"num_deleted":"0","num_feature":"38","num_nodes":"11","size_leaf_vector":"1"}},{"base_weights":[-0E0,-1.1286209E-3,4.419733E-3,-2.59014E-3,2.1471E-2,-1.0780105E-3,4.3565533E-3,8.37767E-3,-0E0],"categories":[],"categories_nodes":[],"categories_segments":[],"categories_sizes":[],"default_left":[0,0,0,0,0,0,0,0,0],"id":77,"left_children":[1,3,-1,5,7,-1,-1,-1,-1],"loss_changes":[1.9436559E-2,2.235843E-2,0E0,2.577684E-2,2.120249E-3,0E0,0E0,0E0,0E0],"parents":[2147483647,0,0,1,1,3,3,4,4],"right_children":[2,4,-1,6,8,-1,-1,-1,-1],"split_conditions":[1E0,1E0,4.419733E-3,1E0,1.07E5,-1.0780105E-3,4.3565533E-3,8.37767E-3,-0E0],"split_indices":[20,27,0,16,2,0,0,0,0],"split_type":[0,0,0,0,0,0,0,0,0],"sum_hessian":[1.064E3,1.006E3,5.8E1,9.69E2,3.7E1,9.19E2,5E1,1.7E1,2E1],"tree_param":{"num_deleted":"0","num_feature":"38","num_nodes":"9","size_leaf_vector":"1"}},{"base_weights":[-0E0,-5.6452514E-4,4.8752474E-3,-2.041976E-3,1.9089054E-2,-9.06685E-4,4.1262964E-3,4.97475E-3,-0E0],"categories":[],"categories_nodes":[],"categories_segments":[],"categories_sizes":[],"default_left":[0,0,0,0,0,0,0,0,0],"id":78,"left_children":[1,3,-1,5,7,-1,-1,-1,-1],"loss_changes":[1.6710805E-2,1.9017993E-2,0E0,2.0482017E-2,5.1579345E-4,0E0,0E0,0E0,0E0],"parents":[2147483647,0,0,1,1,3,3,4,4],"right_children":[2,4,-1,6,8,-1,-1,-1,-1],"split_conditions":[1E0,1E0,4.8752474E-3,1E0,1.602E0,-9.06685E-4,4.1262964E-3,4.97475E-3,-0E0],"split_indices":[4,24,0,15,0,0,0,0,0],"split_type":[0,0,0,0,0,0,0,0,0],"sum_hessian":[1.036E3,9.93E2,4.3E1,9.51E2,4.2E1,9.05E2,4.6E1,4E1,2E0],"tree_param":{"num_deleted":"0","num_feature":"38","num_nodes":"9","size_leaf_vector":"1"}},{"base_weights":[-0E0,-7.750738E-4,5.80572E-3,-2.2959707E-3,2.0652559E-2,-9.82282E-4,4.7414415E-3,-0E0,5.3132526E-3],"categories":[],"categories_nodes":[],"categories_segments":[],"categories_sizes":[],"default_left":[0,0,0,0,0,0,0,0,0],"id":79,"left_children":[1,3,-1,5,7,-1,-1,-1,-1],"loss_changes":[2.062833E-2,2.2509266E-2,0E0,2.5058739E-2,1.303684E-4,0E0,0E0,0E0,0E0],"parents":[2147483647,0,0,1,1,3,3,4,4],"right_children":[2,4,-1,6,8,-1,-1,-1,-1],"split_conditions":[1E0,1E0,5.80572E-3,1E0,2.6E4,-9.82282E-4,4.7414415E-3,-0E0,5.3132526E-3],"split_indices":[14,23,0,22,2,0,0,0,0],"split_type":[0,0,0,0,0,0,0,0,0],"sum_hessian":[1.052E3,1.015E3,3.7E1,9.73E2,4.2E1,9.29E2,4.4E1,2E0,4E1],"tree_param":{"num_deleted":"0","num_feature":"38","num_nodes":"9","size_leaf_vector":"1"}},{"base_weights":[-0E0,-1.5464242E-3,7.1660485E-3,4.945829E-3,-3.5313896E-3,1.5481388E-2,-0E0,2.0945573E-3,-0E0,-3.3059977E-3,-2.153534E-4,-0E0,5.0052386E-3,-2.7197835E-4,-0E0],"categories":[],"categories_nodes":[],"categories_segments":[],"categories_sizes":[],"default_left":[0,0,0,0,0,0,0,0,0,0,0,0,0,0,0],"id":80,"left_children":[1,3,5,7,9,11,13,-1,-1,-1,-1,-1,-1,-1,-1],"loss_changes":[1.4131321E-2,9.705592E-3,1.5425006E-2,5.2697104E-3,9.808257E-3,1.1288203E-2,6.0477338E-5,0E0,0E0,0E0,0E0,0E0,0E0,0E0,0E0],"parents":[2147483647,0,0,1,1,2,2,3,3,4,4,5,5,6,6],"right_children":[2,4,6,8,10,12,14,-1,-1,-1,-1,-1,-1,-1,-1],"split_conditions":[1E0,5.1E4,1.05E5,1E0,7.2E4,2.182E1,1.49E5,2.0945573E-3,-0E0,-3.3059977E-3,-2.153534E-4,-0E0,5.0052386E-3,-2.7197835E-4,-0E0],"split_indices":[36,2,2,11,2,1,2,0,0,0,0,0,0,0,0],"split_type":[0,0,0,0,0,0,0,0,0,0,0,0,0,0,0],"sum_hessian":[1.053E3,8.16E2,2.37E2,1.23E2,6.93E2,1.15E2,1.22E2,1.18E2,5E0,1.03E2,5.9E2,1.8E1,9.7E1,5.1E1,7.1E1],"tree_param":{"num_deleted":"0","num_feature":"38","num_nodes":"15","size_leaf_vector":"1"}},{"base_weights":[3.4147553E-5,2.4535384E-3,-7.1585057E-3,6.338834E-3,-5.4257545E-3,-8.824549E-3,-0E0,1.9911923E-3,-2.0077722E-3,-1.7811818E-3,-0E0,-0E0,-3.478375E-3],"categories":[],"categories_nodes":[],"categories_segments":[],"categories_sizes":[],"default_left":[0,0,0,0,0,0,0,0,0,0,0,0,0],"id":81,"left_children":[1,3,5,7,9,11,-1,-1,-1,-1,-1,-1,-1],"loss_changes":[1.5826615E-2,2.6773479E-2,4.1416856E-3,1.4473069E-2,4.215032E-3,5.133562E-3,0E0,0E0,0E0,0E0,0E0,0E0,0E0],"parents":[2147483647,0,0,1,1,2,2,3,3,4,4,5,5],"right_children":[2,4,6,8,10,12,-1,-1,-1,-1,-1,-1,-1],"split_conditions":[1E0,1E0,1.83E5,1E0,1E0,1.01E5,-0E0,1.9911923E-3,-2.0077722E-3,-1.7811818E-3,-0E0,-0E0,-3.478375E-3],"split_indices":[31,32,2,5,4,2,0,0,0,0,0,0,0],"split_type":[0,0,0,0,0,0,0,0,0,0,0,0,0],"sum_hessian":[1.065E3,8.57E2,2.08E2,6.23E2,2.34E2,1.9E2,1.8E1,5.96E2,2.7E1,2.19E2,1.5E1,8.7E1,1.03E2],"tree_param":{"num_deleted":"0","num_feature":"38","num_nodes":"13","size_leaf_vector":"1"}},{"base_weights":[-0E0,-6.281977E-4,5.111401E-3,-2.0863297E-3,1.461445E-2,-8.5552497E-4,4.0676217E-3,5.0523E-3,-0E0],"categories":[],"categories_nodes":[],"categories_segments":[],"categories_sizes":[],"default_left":[0,0,0,0,0,0,0,0,0],"id":82,"left_children":[1,3,-1,5,7,-1,-1,-1,-1],"loss_changes":[1.6330343E-2,1.5101309E-2,0E0,1.5870487E-2,3.8025891E-3,0E0,0E0,0E0,0E0],"parents":[2147483647,0,0,1,1,3,3,4,4],"right_children":[2,4,-1,6,8,-1,-1,-1,-1],"split_conditions":[1E0,1E0,5.111401E-3,1E0,1E0,-8.5552497E-4,4.0676217E-3,5.0523E-3,-0E0],"split_indices":[10,20,0,12,37,0,0,0,0],"split_type":[0,0,0,0,0,0,0,0,0],"sum_hessian":[1.042E3,1.004E3,3.8E1,9.51E2,5.3E1,9.16E2,3.5E1,3.7E1,1.6E1],"tree_param":{"num_deleted":"0","num_feature":"38","num_nodes":"9","size_leaf_vector":"1"}},{"base_weights":[2.55872E-6,1.2289588E-3,-4.1394583E-3,2.627E-3,-1.4788694E-2,1.0236802E-3,-3.3197477E-3,-0E0,-4.142202E-3],"categories":[],"categories_nodes":[],"categories_segments":[],"categories_sizes":[],"default_left":[0,0,0,0,0,0,0,0,0],"id":83,"left_children":[1,3,-1,5,7,-1,-1,-1,-1],"loss_changes":[1.2526634E-2,1.5661418E-2,0E0,1.7166112E-2,1.5726881E-3,0E0,0E0,0E0,0E0],"parents":[2147483647,0,0,1,1,3,3,4,4],"right_children":[2,4,-1,6,8,-1,-1,-1,-1],"split_conditions":[1E0,1E0,-4.1394583E-3,1E0,3.2E4,1.0236802E-3,-3.3197477E-3,-0E0,-4.142202E-3],"split_indices":[11,8,0,19,2,0,0,0,0],"split_type":[0,0,0,0,0,0,0,0,0],"sum_hessian":[1.052E3,1.012E3,4E1,9.64E2,4.8E1,9.16E2,4.8E1,4E0,4.4E1],"tree_param":{"num_deleted":"0","num_feature":"38","num_nodes":"9","size_leaf_vector":"1"}},{"base_weights":[-0E0,9.039144E-4,-3.8634825E-3,2.2067674E-3,-1.7744392E-2,8.841706E-4,-2.9003834E-3,-4.579275E-3,-0E0],"categories":[],"categories_nodes":[],"categories_segments":[],"categories_sizes":[],"default_left":[0,0,0,0,0,0,0,0,0],"id":84,"left_children":[1,3,-1,5,7,-1,-1,-1,-1],"loss_changes":[1.2778904E-2,1.5252294E-2,0E0,1.2947027E-2,3.9373245E-4,0E0,0E0,0E0,0E0],"parents":[2147483647,0,0,1,1,3,3,4,4],"right_children":[2,4,-1,6,8,-1,-1,-1,-1],"split_conditions":[1E0,1E0,-3.8634825E-3,1E0,2.55E0,8.841706E-4,-2.9003834E-3,-4.579275E-3,-0E0],"split_indices":[25,18,0,8,3,0,0,0,0],"split_type":[0,0,0,0,0,0,0,0,0],"sum_hessian":[1.046E3,9.96E2,5E1,9.6E2,3.6E1,9.14E2,4.6E1,3.5E1,1E0],"tree_param":{"num_deleted":"0","num_feature":"38","num_nodes":"9","size_leaf_vector":"1"}},{"base_weights":[-0E0,4.7725523E-4,-1.8022085E-2,1.7600965E-3,-1.4938053E-2,-0E0,-4.5730923E-3,7.8755076E-4,-2.9023157E-3,-4.183751E-3,-0E0],"categories":[],"categories_nodes":[],"categories_segments":[],"categories_sizes":[],"default_left":[0,0,0,0,0,0,0,0,0,0,0],"id":85,"left_children":[1,3,5,7,9,-1,-1,-1,-1,-1,-1],"loss_changes":[1.2957312E-2,1.2660809E-2,3.056042E-5,1.33065E-2,8.176919E-4,0E0,0E0,0E0,0E0,0E0,0E0],"parents":[2147483647,0,0,1,1,2,2,3,3,4,4],"right_children":[2,4,6,8,10,-1,-1,-1,-1,-1,-1],"split_conditions":[1E0,1E0,2.26E0,1E0,1.78E5,-0E0,-4.5730923E-3,7.8755076E-4,-2.9023157E-3,-4.183751E-3,-0E0],"split_indices":[6,11,3,7,2,0,0,0,0,0,0],"split_type":[0,0,0,0,0,0,0,0,0,0,0],"sum_hessian":[1.063E3,1.024E3,3.9E1,9.8E2,4.4E1,1E0,3.8E1,9.27E2,5.3E1,3.8E1,6E0],"tree_param":{"num_deleted":"0","num_feature":"38","num_nodes":"11","size_leaf_vector":"1"}},{"base_weights":[-0E0,-1.1743242E-3,1.7542178E-2,-2.6449712E-3,1.598075E-2,2.1589817E-2,-0E0,-9.959984E-4,3.8614508E-3,-0E0,4.0593417E-3,6.1277393E-3,-0E0],"categories":[],"categories_nodes":[],"categories_segments":[],"categories_sizes":[],"default_left":[0,0,0,0,0,0,0,0,0,0,0,0,0],"id":86,"left_children":[1,3,5,7,9,11,-1,-1,-1,-1,-1,-1,-1],"loss_changes":[1.5265882E-2,1.7275117E-2,3.4264885E-3,1.6164944E-2,1.07946806E-4,7.7334046E-4,0E0,0E0,0E0,0E0,0E0,0E0,0E0],"parents":[2147483647,0,0,1,1,2,2,3,3,4,4,5,5],"right_children":[2,4,6,8,10,12,-1,-1,-1,-1,-1,-1,-1],"split_conditions":[1E0,1E0,1E0,1E0,2.011E1,1E0,-0E0,-9.959984E-4,3.8614508E-3,-0E0,4.0593417E-3,6.1277393E-3,-0E0],"split_indices":[9,16,30,27,1,37,0,0,0,0,0,0,0],"split_type":[0,0,0,0,0,0,0,0,0,0,0,0,0],"sum_hessian":[1.034E3,9.89E2,4.5E1,9.42E2,4.7E1,3.7E1,8E0,9.07E2,3.5E1,1E0,4.6E1,3E1,7E0],"tree_param":{"num_deleted":"0","num_feature":"38","num_nodes":"13","size_leaf_vector":"1"}},{"base_weights":[-0E0,7.810853E-4,-4.303048E-3,-3.5307358E-4,6.4139334E-3,7.633003E-5,-1.491872E-3,2.1225621E-3,-0E0],"categories":[],"categories_nodes":[],"categories_segments":[],"categories_sizes":[],"default_left":[0,0,0,0,0,0,0,0,0],"id":87,"left_children":[1,3,-1,5,7,-1,-1,-1,-1],"loss_changes":[9.837138E-3,9.935344E-3,0E0,6.0467506E-3,7.046189E-3,0E0,0E0,0E0,0E0],"parents":[2147483647,0,0,1,1,3,3,4,4],"right_children":[2,4,-1,6,8,-1,-1,-1,-1],"split_conditions":[1E0,1E0,-4.303048E-3,1E0,1E0,7.633003E-5,-1.491872E-3,2.1225621E-3,-0E0],"split_indices":[17,35,0,32,11,0,0,0,0],"split_type":[0,0,0,0,0,0,0,0,0],"sum_hessian":[1.039E3,1.008E3,3.1E1,7.54E2,2.54E2,5.83E2,1.71E2,2.43E2,1.1E1],"tree_param":{"num_deleted":"0","num_feature":"38","num_nodes":"9","size_leaf_vector":"1"}},{"base_weights":[-0E0,-1.81251E-3,6.3475035E-3,3.5299691E-3,-3.5905552E-3,1.2379986E-2,-0E0,1.6356561E-3,-0E0,-1.2321046E-3,1.841938E-3,4.1519646E-3,-0E0,-0E0,1.2177175E-4],"categories":[],"categories_nodes":[],"categories_segments":[],"categories_sizes":[],"default_left":[0,0,0,0,0,0,0,0,0,0,0,0,0,0,0],"id":88,"left_children":[1,3,5,7,9,11,13,-1,-1,-1,-1,-1,-1,-1,-1],"loss_changes":[1.2266853E-2,7.875635E-3,7.943009E-3,3.5766629E-3,8.832334E-3,9.814255E-3,1.8045557E-5,0E0,0E0,0E0,0E0,0E0,0E0,0E0,0E0],"parents":[2147483647,0,0,1,1,2,2,3,3,4,4,5,5,6,6],"right_children":[2,4,6,8,10,12,14,-1,-1,-1,-1,-1,-1,-1,-1],"split_conditions":[1E0,5.1E4,1.05E5,1E0,1E0,1.378E0,1.48E5,1.6356561E-3,-0E0,-1.2321046E-3,1.841938E-3,4.1519646E-3,-0E0,-0E0,1.2177175E-4],"split_indices":[36,2,2,11,23,0,2,0,0,0,0,0,0,0,0],"split_type":[0,0,0,0,0,0,0,0,0,0,0,0,0,0,0],"sum_hessian":[1.062E3,8.25E2,2.37E2,1.25E2,7E2,1.14E2,1.23E2,1.2E2,5E0,6.71E2,2.9E1,9.9E1,1.5E1,4.7E1,7.6E1],"tree_param":{"num_deleted":"0","num_feature":"38","num_nodes":"15","size_leaf_vector":"1"}},{"base_weights":[-0E0,8.255927E-4,-1.6643075E-2,-0E0,6.871538E-3,-4.505438E-3,-0E0,-6.935607E-4,1.405923E-3,2.3613307E-3,-0E0],"categories":[],"categories_nodes":[],"categories_segments":[],"categories_sizes":[],"default_left":[0,0,0,0,0,0,0,0,0,0,0],"id":89,"left_children":[1,3,5,7,9,-1,-1,-1,-1,-1,-1],"loss_changes":[1.0442779E-2,8.705232E-3,6.9091655E-4,1.1403671E-2,7.4468916E-3,0E0,0E0,0E0,0E0,0E0,0E0],"parents":[2147483647,0,0,1,1,2,2,3,3,4,4],"right_children":[2,4,6,8,10,-1,-1,-1,-1,-1,-1],"split_conditions":[1E0,1E0,2.662E1,1E0,1E0,-4.505438E-3,-0E0,-6.935607E-4,1.405923E-3,2.3613307E-3,-0E0],"split_indices":[21,33,1,29,7,0,0,0,0,0,0],"split_type":[0,0,0,0,0,0,0,0,0,0,0],"sum_hessian":[1.061E3,1.026E3,3.5E1,8.27E2,1.99E2,3.2E1,3E0,6.16E2,2.11E2,1.89E2,1E1],"tree_param":{"num_deleted":"0","num_feature":"38","num_nodes":"11","size_leaf_vector":"1"}},{"base_weights":[-0E0,-8.393555E-4,1.661743E-2,-2.0552757E-3,3.471212E-3,1.738232E-2,-0E0,-8.3096704E-4,3.4743368E-3,-0E0,4.4280486E-3],"categories":[],"categories_nodes":[],"categories_segments":[],"categories_sizes":[],"default_left":[0,0,0,0,0,0,0,0,0,0,0],"id":90,"left_children":[1,3,5,7,-1,9,-1,-1,-1,-1,-1],"loss_changes":[1.1798667E-2,1.108496E-2,4.4051744E-4,1.3297022E-2,0E0,1.10565685E-4,0E0,0E0,0E0,0E0,0E0],"parents":[2147483647,0,0,1,1,2,2,3,3,5,5],"right_children":[2,4,6,8,-1,10,-1,-1,-1,-1,-1],"split_conditions":[1E0,1E0,1.602E0,1E0,3.471212E-3,8.2E-1,-0E0,-8.3096704E-4,3.4743368E-3,-0E0,4.4280486E-3],"split_indices":[24,22,0,27,0,0,0,0,0,0,0],"split_type":[0,0,0,0,0,0,0,0,0,0,0],"sum_hessian":[1.04E3,1E3,4E1,9.6E2,4E1,3.8E1,2E0,9.23E2,3.7E1,1E0,3.7E1],"tree_param":{"num_deleted":"0","num_feature":"38","num_nodes":"11","size_leaf_vector":"1"}},{"base_weights":[-0E0,-3.531311E-4,1.7633088E-2,-1.4903005E-3,1.3989209E-2,4.533209E-3,-0E0,-8.734801E-4,8.325978E-4,3.632977E-3,-0E0],"categories":[],"categories_nodes":[],"categories_segments":[],"categories_sizes":[],"default_left":[0,0,0,0,0,0,0,0,0,0,0],"id":91,"left_children":[1,3,5,7,9,-1,-1,-1,-1,-1,-1],"loss_changes":[1.3238054E-2,9.094085E-3,7.6238066E-5,9.382246E-3,1.2665614E-4,0E0,0E0,0E0,0E0,0E0,0E0],"parents":[2147483647,0,0,1,1,2,2,3,3,4,4],"right_children":[2,4,6,8,10,-1,-1,-1,-1,-1,-1],"split_conditions":[1E0,1E0,2.702E1,1E0,1.422E0,4.533209E-3,-0E0,-8.734801E-4,8.325978E-4,3.632977E-3,-0E0],"split_indices":[4,10,1,29,0,0,0,0,0,0,0],"split_type":[0,0,0,0,0,0,0,0,0,0,0],"sum_hessian":[1.041E3,9.99E2,4.2E1,9.63E2,3.6E1,4E1,2E0,7.65E2,1.98E2,3.4E1,2E0],"tree_param":{"num_deleted":"0","num_feature":"38","num_nodes":"11","size_leaf_vector":"1"}},{"base_weights":[1.1942068E-4,-0E0,1.4437577E-2,-1.1208729E-3,1.602782E-2,1.8412184E-2,-0E0,-5.988036E-4,3.8760363E-3,-0E0,4.396377E-3,4.7818683E-3,-0E0],"categories":[],"categories_nodes":[],"categories_segments":[],"categories_sizes":[],"default_left":[0,0,0,0,0,0,0,0,0,0,0,0,0],"id":92,"left_children":[1,3,5,7,9,11,-1,-1,-1,-1,-1,-1,-1],"loss_changes":[9.1932705E-3,1.0243852E-2,3.3947108E-3,1.2774812E-2,8.989405E-4,6.1232224E-4,0E0,0E0,0E0,0E0,0E0,0E0,0E0],"parents":[2147483647,0,0,1,1,2,2,3,3,4,4,5,5],"right_children":[2,4,6,8,10,12,-1,-1,-1,-1,-1,-1,-1],"split_conditions":[1E0,1E0,1E0,1E0,2.101E1,1.93E5,-0E0,-5.988036E-4,3.8760363E-3,-0E0,4.396377E-3,4.7818683E-3,-0E0],"split_indices":[9,12,30,14,1,2,0,0,0,0,0,0,0],"split_type":[0,0,0,0,0,0,0,0,0,0,0,0,0],"sum_hessian":[1.04E3,9.96E2,4.4E1,9.61E2,3.5E1,3.7E1,7E0,9.25E2,3.6E1,3E0,3.2E1,3.6E1,1E0],"tree_param":{"num_deleted":"0","num_feature":"38","num_nodes":"13","size_leaf_vector":"1"}},{"base_weights":[4.8572753E-4,-0E0,1.5670838E-2,-8.320522E-4,3.3970806E-3,1.6486796E-2,-0E0,-5.1503594E-4,3.060591E-3,-0E0,4.430852E-3],"categories":[],"categories_nodes":[],"categories_segments":[],"categories_sizes":[],"default_left":[0,0,0,0,0,0,0,0,0,0,0],"id":93,"left_children":[1,3,5,7,-1,9,-1,-1,-1,-1,-1],"loss_changes":[1.109179E-2,8.625394E-3,3.961688E-4,9.54132E-3,0E0,2.3777131E-4,0E0,0E0,0E0,0E0,0E0],"parents":[2147483647,0,0,1,1,2,2,3,3,5,5],"right_children":[2,4,6,8,-1,10,-1,-1,-1,-1,-1],"split_conditions":[1E0,1E0,2.729E1,1E0,3.3970806E-3,2.241E1,-0E0,-5.1503594E-4,3.060591E-3,-0E0,4.430852E-3],"split_indices":[15,23,1,24,0,1,0,0,0,0,0],"split_type":[0,0,0,0,0,0,0,0,0,0,0],"sum_hessian":[1.05E3,1.004E3,4.6E1,9.61E2,4.3E1,4.3E1,3E0,9.19E2,4.2E1,5E0,3.8E1],"tree_param":{"num_deleted":"0","num_feature":"38","num_nodes":"11","size_leaf_vector":"1"}},{"base_weights":[3.9623256E-4,-0E0,1.2849988E-2,-9.2311413E-4,3.135623E-3,4.4613285E-3,-0E0,-5.236927E-4,2.759295E-3],"categories":[],"categories_nodes":[],"categories_segments":[],"categories_sizes":[],"default_left":[0,0,0,0,0,0,0,0,0],"id":94,"left_children":[1,3,5,7,-1,-1,-1,-1,-1],"loss_changes":[8.449516E-3,8.694454E-3,4.159392E-3,8.196292E-3,0E0,0E0,0E0,0E0,0E0],"parents":[2147483647,0,0,1,1,2,2,3,3],"right_children":[2,4,6,8,-1,-1,-1,-1,-1],"split_conditions":[1E0,1E0,1E0,1E0,3.135623E-3,4.4613285E-3,-0E0,-5.236927E-4,2.759295E-3],"split_indices":[20,4,32,22,0,0,0,0,0],"split_type":[0,0,0,0,0,0,0,0,0],"sum_hessian":[1.056E3,1.004E3,5.2E1,9.54E2,5E1,4E1,1.2E1,9.13E2,4.1E1],"tree_param":{"num_deleted":"0","num_feature":"38","num_nodes":"9","size_leaf_vector":"1"}},{"base_weights":[4.8523358E-4,2.622119E-3,-3.611168E-3,5.7909233E-3,-7.697002E-4,-7.862326E-3,-0E0,1.8496453E-3,-1.0199687E-3,-0E0,-1.2473887E-3,-2.4544215E-3,-0E0],"categories":[],"categories_nodes":[],"categories_segments":[],"categories_sizes":[],"default_left":[0,0,0,0,0,0,0,0,0,0,0,0,0],"id":95,"left_children":[1,3,5,7,9,11,-1,-1,-1,-1,-1,-1,-1],"loss_changes":[8.536679E-3,1.1237931E-2,3.1801886E-3,9.650301E-3,3.5380644E-3,2.0534024E-3,0E0,0E0,0E0,0E0,0E0,0E0,0E0],"parents":[2147483647,0,0,1,1,2,2,3,3,4,4,5,5],"right_children":[2,4,6,8,10,12,-1,-1,-1,-1,-1,-1,-1],"split_conditions":[1E0,1E0,9.6E4,1E0,1.05E5,2.563E1,-0E0,1.8496453E-3,-1.0199687E-3,-0E0,-1.2473887E-3,-2.4544215E-3,-0E0],"split_indices":[34,37,2,11,2,1,0,0,0,0,0,0,0],"split_type":[0,0,0,0,0,0,0,0,0,0,0,0,0],"sum_hessian":[1.04E3,7.76E2,2.64E2,4.89E2,2.87E2,1.07E2,1.57E2,4.71E2,1.8E1,1.38E2,1.49E2,9E1,1.7E1],"tree_param":{"num_deleted":"0","num_feature":"38","num_nodes":"13","size_leaf_vector":"1"}},{"base_weights":[3.51051E-4,-0E0,1.4217676E-2,-7.253873E-4,1.1356656E-2,-0E0,3.6273585E-3,-4.4130662E-4,2.7833732E-3,3.2356586E-3,-0E0],"categories":[],"categories_nodes":[],"categories_segments":[],"categories_sizes":[],"default_left":[0,0,0,0,0,0,0,0,0,0,0],"id":96,"left_children":[1,3,5,7,9,-1,-1,-1,-1,-1,-1],"loss_changes":[8.397761E-3,5.6836572E-3,1.2983754E-4,6.3493606E-3,5.345489E-4,0E0,0E0,0E0,0E0,0E0,0E0],"parents":[2147483647,0,0,1,1,2,2,3,3,4,4],"right_children":[2,4,6,8,10,-1,-1,-1,-1,-1,-1],"split_conditions":[1E0,1E0,2.011E1,1E0,1E0,-0E0,3.6273585E-3,-4.4130662E-4,2.7833732E-3,3.2356586E-3,-0E0],"split_indices":[16,10,1,12,29,0,0,0,0,0,0],"split_type":[0,0,0,0,0,0,0,0,0,0,0],"sum_hessian":[1.036E3,9.94E2,4.2E1,9.54E2,4E1,1E0,4.1E1,9.22E2,3.2E1,3.4E1,6E0],"tree_param":{"num_deleted":"0","num_feature":"38","num_nodes":"11","size_leaf_vector":"1"}},{"base_weights":[-0E0,-0E0,1.1339326E-2,-9.2013844E-4,1.0291087E-2,1.921456E-2,-0E0,-5.0495326E-4,2.1849826E-3,2.8261517E-3,-0E0,4.9937936E-3,-0E0],"categories":[],"categories_nodes":[],"categories_segments":[],"categories_sizes":[],"default_left":[0,0,0,0,0,0,0,0,0,0,0,0,0],"id":97,"left_children":[1,3,5,7,9,11,-1,-1,-1,-1,-1,-1,-1],"loss_changes":[4.7800397E-3,4.641619E-3,1.1919471E-3,6.27869E-3,5.2959425E-4,7.3988456E-5,0E0,0E0,0E0,0E0,0E0,0E0,0E0],"parents":[2147483647,0,0,1,1,2,2,3,3,4,4,5,5],"right_children":[2,4,6,8,10,12,-1,-1,-1,-1,-1,-1,-1],"split_conditions":[1E0,1E0,9.4E4,1E0,1.416E0,2.652E1,-0E0,-5.0495326E-4,2.1849826E-3,2.8261517E-3,-0E0,4.9937936E-3,-0E0],"split_indices":[27,10,2,24,0,1,0,0,0,0,0,0,0],"split_type":[0,0,0,0,0,0,0,0,0,0,0,0,0],"sum_hessian":[1.03E3,9.93E2,3.7E1,9.57E2,3.6E1,1.6E1,2.1E1,9.13E2,4.4E1,3.4E1,2E0,1.5E1,1E0],"tree_param":{"num_deleted":"0","num_feature":"38","num_nodes":"13","size_leaf_vector":"1"}},{"base_weights":[-0E0,-2.941504E-4,2.9650498E-3,-1.29705E-3,1.0921615E-2,-6.100133E-4,2.3845923E-3,2.792675E-3,-0E0],"categories":[],"categories_nodes":[],"categories_segments":[],"categories_sizes":[],"default_left":[0,0,0,0,0,0,0,0,0],"id":98,"left_children":[1,3,-1,5,7,-1,-1,-1,-1],"loss_changes":[6.572211E-3,5.737794E-3,0E0,7.878303E-3,6.232364E-5,0E0,0E0,0E0,0E0],"parents":[2147483647,0,0,1,1,3,3,4,4],"right_children":[2,4,-1,6,8,-1,-1,-1,-1],"split_conditions":[1E0,1E0,2.9650498E-3,1E0,2.64E0,-6.100133E-4,2.3845923E-3,2.792675E-3,-0E0],"split_indices":[15,14,0,9,3,0,0,0,0],"split_type":[0,0,0,0,0,0,0,0,0],"sum_hessian":[1.049E3,1.003E3,4.6E1,9.68E2,3.5E1,9.24E2,4.4E1,3.4E1,1E0],"tree_param":{"num_deleted":"0","num_feature":"38","num_nodes":"9","size_leaf_vector":"1"}},{"base_weights":[4.7100653E-4,1.4744505E-3,-8.687935E-3,2.5134594E-3,-7.831077E-3,-0E0,-8.9981705E-3,1.1037671E-3,-1.9475004E-4,-2.029772E-3,-0E0,-0E0,-2.3269737E-3],"categories":[],"categories_nodes":[],"categories_segments":[],"categories_sizes":[],"default_left":[0,0,0,0,0,0,0,0,0,0,0,0,0],"id":99,"left_children":[1,3,5,7,9,-1,11,-1,-1,-1,-1,-1,-1],"loss_changes":[5.6054797E-3,6.7433543E-3,1.8336507E-4,8.145234E-3,1.4169258E-4,0E0,1.74782E-4,0E0,0E0,0E0,0E0,0E0,0E0],"parents":[2147483647,0,0,1,1,2,2,3,3,4,4,6,6],"right_children":[2,4,6,8,10,-1,12,-1,-1,-1,-1,-1,-1],"split_conditions":[1E0,1E0,8.34E-1,1E0,1.91E5,-0E0,2.3E0,1.1037671E-3,-1.9475004E-4,-2.029772E-3,-0E0,-0E0,-2.3269737E-3],"split_indices":[19,26,0,34,2,0,3,0,0,0,0,0,0],"split_type":[0,0,0,0,0,0,0,0,0,0,0,0,0],"sum_hessian":[1.062E3,1.014E3,4.8E1,9.68E2,4.6E1,1E0,4.7E1,7.25E2,2.43E2,4.5E1,1E0,1E0,4.6E1],"tree_param":{"num_deleted":"0","num_feature":"38","num_nodes":"13","size_leaf_vector":"1"}},{"base_weights":[-0E0,3.4249376E-4,-1.1536722E-2,7.3353983E-3,-1.6798469E-4,-1.3104784E-2,-0E0,2.9608787E-3,-0E0,-4.65024E-4,9.1504544E-4,-3.6241864E-3,-0E0],"categories":[],"categories_nodes":[],"categories_segments":[],"categories_sizes":[],"default_left":[0,0,0,0,0,0,0,0,0,0,0,0,0],"id":100,"left_children":[1,3,5,7,9,11,-1,-1,-1,-1,-1,-1,-1],"loss_changes":[4.80127E-3,7.7705113E-3,6.7221886E-4,7.985535E-3,4.611556E-3,7.681749E-4,0E0,0E0,0E0,0E0,0E0,0E0,0E0],"parents":[2147483647,0,0,1,1,2,2,3,3,4,4,5,5],"right_children":[2,4,6,8,10,12,-1,-1,-1,-1,-1,-1,-1],"split_conditions":[1E0,5E4,1.94E5,1E0,1E0,2.694E1,-0E0,2.9608787E-3,-0E0,-4.65024E-4,9.1504544E-4,-3.6241864E-3,-0E0],"split_indices":[18,2,2,32,33,1,0,0,0,0,0,0,0],"split_type":[0,0,0,0,0,0,0,0,0,0,0,0,0],"sum_hessian":[1.054E3,1.019E3,3.5E1,1.46E2,8.73E2,3.1E1,4E0,1.13E2,3.3E1,7.1E2,1.63E2,2.9E1,2E0],"tree_param":{"num_deleted":"0","num_feature":"38","num_nodes":"13","size_leaf_vector":"1"}},{"base_weights":[-0E0,2.1097178E-4,-2.8392363E-3,-6.7494187E-4,4.898377E-3,-7.35232E-4,5.313586E-4,1.7549084E-3,-0E0],"categories":[],"categories_nodes":[],"categories_segments":[],"categories_sizes":[],"default_left":[0,0,0,0,0,0,0,0,0],"id":101,"left_children":[1,3,-1,5,7,-1,-1,-1,-1],"loss_changes":[5.2181594E-3,6.555595E-3,0E0,5.1034144E-3,5.9929215E-3,0E0,0E0,0E0,0E0],"parents":[2147483647,0,0,1,1,3,3,4,4],"right_children":[2,4,-1,6,8,-1,-1,-1,-1],"split_conditions":[1E0,1E0,-2.8392363E-3,1E0,1E0,-7.35232E-4,5.313586E-4,1.7549084E-3,-0E0],"split_indices":[6,35,0,36,11,0,0,0,0],"split_type":[0,0,0,0,0,0,0,0,0],"sum_hessian":[1.032E3,9.92E2,4E1,7.31E2,2.61E2,5.18E2,2.13E2,2.49E2,1.2E1],"tree_param":{"num_deleted":"0","num_feature":"38","num_nodes":"9","size_leaf_vector":"1"}},{"base_weights":[-0E0,-6.3477736E-4,2.9446466E-3,-1.7578522E-3,1.0376804E-2,-7.1609754E-4,2.2002102E-3,-0E0,2.6330487E-3],"categories":[],"categories_nodes":[],"categories_segments":[],"categories_sizes":[],"default_left":[0,0,0,0,0,0,0,0,0],"id":102,"left_children":[1,3,-1,5,7,-1,-1,-1,-1],"loss_changes":[6.661354E-3,7.41562E-3,0E0,7.7271853E-3,2.8430019E-5,0E0,0E0,0E0,0E0],"parents":[2147483647,0,0,1,1,3,3,4,4],"right_children":[2,4,-1,6,8,-1,-1,-1,-1],"split_conditions":[1E0,1E0,2.9446466E-3,1E0,2.17E0,-7.1609754E-4,2.2002102E-3,-0E0,2.6330487E-3],"split_indices":[23,15,0,4,3,0,0,0,0],"split_type":[0,0,0,0,0,0,0,0,0],"sum_hessian":[1.046E3,1.001E3,4.5E1,9.56E2,4.5E1,9.15E2,4.1E1,1E0,4.4E1],"tree_param":{"num_deleted":"0","num_feature":"38","num_nodes":"9","size_leaf_vector":"1"}},{"base_weights":[4.9098267E-4,1.4486556E-3,-2.2179682E-3,2.3530675E-3,-1.8424043E-3,8.449474E-4,-1.520685E-3],"categories":[],"categories_nodes":[],"categories_segments":[],"categories_sizes":[],"default_left":[0,0,0,0,0,0,0],"id":103,"left_children":[1,3,-1,5,-1,-1,-1],"loss_changes":[5.0914334E-3,5.1177284E-3,0E0,6.8238773E-3,0E0,0E0,0E0],"parents":[2147483647,0,0,1,1,3,3],"right_children":[2,4,-1,6,-1,-1,-1],"split_conditions":[1E0,1E0,-2.2179682E-3,1E0,-1.8424043E-3,8.449474E-4,-1.520685E-3],"split_indices":[6,17,0,5,0,0,0],"split_type":[0,0,0,0,0,0,0],"sum_hessian":[1.045E3,1.004E3,4.1E1,9.7E2,3.4E1,9.26E2,4.4E1],"tree_param":{"num_deleted":"0","num_feature":"38","num_nodes":"7","size_leaf_vector":"1"}},{"base_weights":[-2.6337194E-4,-1.2409632E-3,8.257902E-3,-2.258418E-3,8.01711E-3,9.802194E-3,-0E0,-8.4955513E-4,1.4809765E-3,6.0058692E-3,-0E0,-0E0,2.5037553E-3],"categories":[],"categories_nodes":[],"categories_segments":[],"categories_sizes":[],"default_left":[0,0,0,0,0,0,0,0,0,0,0,0,0],"id":104,"left_children":[1,3,5,7,9,11,-1,-1,-1,-1,-1,-1,-1],"loss_changes":[4.6047717E-3,6.0291747E-3,4.23091E-4,7.385235E-3,6.034149E-3,5.099713E-5,0E0,0E0,0E0,0E0,0E0,0E0,0E0],"parents":[2147483647,0,0,1,1,2,2,3,3,4,4,5,5],"right_children":[2,4,6,8,10,12,-1,-1,-1,-1,-1,-1,-1],"split_conditions":[1E0,1E0,1E0,1E0,9.8E4,7.45E-1,-0E0,-8.4955513E-4,1.4809765E-3,6.0058692E-3,-0E0,-0E0,2.5037553E-3],"split_indices":[16,9,31,20,2,0,0,0,0,0,0,0,0],"split_type":[0,0,0,0,0,0,0,0,0,0,0,0,0],"sum_hessian":[1.038E3,9.92E2,4.6E1,9.5E2,4.2E1,3.7E1,9E0,8.96E2,5.4E1,1.5E1,2.7E1,1E0,3.6E1],"tree_param":{"num_deleted":"0","num_feature":"38","num_nodes":"13","size_leaf_vector":"1"}},{"base_weights":[-0E0,-0E0,8.9551E-3,-6.891834E-4,8.1638405E-3,-0E0,1.0842148E-2,-4.1283146E-4,2.0210887E-3,2.0802848E-3,-0E0,-0E0,2.831119E-3],"categories":[],"categories_nodes":[],"categories_segments":[],"categories_sizes":[],"default_left":[0,0,0,0,0,0,0,0,0,0,0,0,0],"id":105,"left_children":[1,3,5,7,9,-1,11,-1,-1,-1,-1,-1,-1],"loss_changes":[2.9010521E-3,3.146037E-3,8.812498E-4,4.604486E-3,3.0828407E-5,0E0,2.0970847E-4,0E0,0E0,0E0,0E0,0E0,0E0],"parents":[2147483647,0,0,1,1,2,2,3,3,4,4,6,6],"right_children":[2,4,6,8,10,-1,12,-1,-1,-1,-1,-1,-1],"split_conditions":[1E0,1E0,2.175E1,1E0,2.64E0,-0E0,2.21E0,-4.1283146E-4,2.0210887E-3,2.0802848E-3,-0E0,-0E0,2.831119E-3],"split_indices":[12,14,1,22,3,0,3,0,0,0,0,0,0],"split_type":[0,0,0,0,0,0,0,0,0,0,0,0,0],"sum_hessian":[1.062E3,1.026E3,3.6E1,9.86E2,4E1,4E0,3.2E1,9.48E2,3.8E1,3.9E1,1E0,1E0,3.1E1],"tree_param":{"num_deleted":"0","num_feature":"38","num_nodes":"13","size_leaf_vector":"1"}},{"base_weights":[5.002308E-4,-0E0,2.9362107E-3,-2.8738033E-4,7.822664E-3,-3.059448E-4,1.946313E-3,4.605135E-3,-0E0],"categories":[],"categories_nodes":[],"categories_segments":[],"categories_sizes":[],"default_left":[0,0,0,0,0,0,0,0,0],"id":106,"left_children":[1,3,-1,5,7,-1,-1,-1,-1],"loss_changes":[4.7202557E-3,3.0276848E-3,0E0,3.4976176E-3,2.8710496E-3,0E0,0E0,0E0,0E0],"parents":[2147483647,0,0,1,1,3,3,4,4],"right_children":[2,4,-1,6,8,-1,-1,-1,-1],"split_conditions":[1E0,1E0,2.9362107E-3,1E0,9.8E4,-3.059448E-4,1.946313E-3,4.605135E-3,-0E0],"split_indices":[27,9,0,12,2,0,0,0,0],"split_type":[0,0,0,0,0,0,0,0,0],"sum_hessian":[1.048E3,1.012E3,3.6E1,9.64E2,4.8E1,9.28E2,3.6E1,1.7E1,3.1E1],"tree_param":{"num_deleted":"0","num_feature":"38","num_nodes":"9","size_leaf_vector":"1"}},{"base_weights":[-0E0,8.3032757E-4,-3.8588375E-3,2.6314787E-3,-1.4872812E-3,-0E0,-4.82807E-3,-0E0,2.1055902E-3,-6.465998E-4,-0E0,-1.4661625E-3,-0E0],"categories":[],"categories_nodes":[],"categories_segments":[],"categories_sizes":[],"default_left":[0,0,0,0,0,0,0,0,0,0,0,0,0],"id":107,"left_children":[1,3,5,7,9,-1,11,-1,-1,-1,-1,-1,-1],"loss_changes":[3.430114E-3,4.192577E-3,1.4231452E-3,5.1658363E-3,9.347584E-4,0E0,1.7460147E-3,0E0,0E0,0E0,0E0,0E0,0E0],"parents":[2147483647,0,0,1,1,2,2,3,3,4,4,6,6],"right_children":[2,4,6,8,10,-1,12,-1,-1,-1,-1,-1,-1],"split_conditions":[1E0,1E0,2.075E1,1E0,1E0,-0E0,1E0,-0E0,2.1055902E-3,-6.465998E-4,-0E0,-1.4661625E-3,-0E0],"split_indices":[31,32,1,36,4,0,22,0,0,0,0,0,0],"split_type":[0,0,0,0,0,0,0,0,0,0,0,0,0],"sum_hessian":[1.037E3,8.46E2,1.91E2,6.16E2,2.3E2,8E0,1.83E2,4.83E2,1.33E2,2.16E2,1.4E1,1.75E2,8E0],"tree_param":{"num_deleted":"0","num_feature":"38","num_nodes":"13","size_leaf_vector":"1"}},{"base_weights":[-0E0,-0E0,1.7774762E-3,-7.2683056E-4,6.3293837E-3,-4.316395E-4,1.389274E-3,-0E0,1.6112699E-3],"categories":[],"categories_nodes":[],"categories_segments":[],"categories_sizes":[],"default_left":[0,0,0,0,0,0,0,0,0],"id":108,"left_children":[1,3,-1,5,7,-1,-1,-1,-1],"loss_changes":[1.9773524E-3,2.4719862E-3,0E0,3.7523976E-3,2.8109644E-5,0E0,0E0,0E0,0E0],"parents":[2147483647,0,0,1,1,3,3,4,4],"right_children":[2,4,-1,6,8,-1,-1,-1,-1],"split_conditions":[1E0,1E0,1.7774762E-3,1E0,7.45E-1,-4.316395E-4,1.389274E-3,-0E0,1.6112699E-3],"split_indices":[10,16,0,20,0,0,0,0,0],"split_type":[0,0,0,0,0,0,0,0,0],"sum_hessian":[1.038E3,9.99E2,3.9E1,9.5E2,4.9E1,8.99E2,5.1E1,1E0,4.8E1],"tree_param":{"num_deleted":"0","num_feature":"38","num_nodes":"9","size_leaf_vector":"1"}},{"base_weights":[7.6505967E-4,2.192895E-3,-1.6715439E-3,3.6061187E-3,-0E0,-2.8584558E-3,-0E0,1.3534296E-3,-0E0,-1.6011893E-4,-0E0,-9.4646047E-4,-0E0],"categories":[],"categories_nodes":[],"categories_segments":[],"categories_sizes":[],"default_left":[0,0,0,0,0,0,0,0,0,0,0,0,0],"id":109,"left_children":[1,3,5,7,9,11,-1,-1,-1,-1,-1,-1,-1],"loss_changes":[3.8817811E-3,4.1485387E-3,1.1367439E-3,4.6603754E-3,5.454708E-5,1.2108262E-3,0E0,0E0,0E0,0E0,0E0,0E0,0E0],"parents":[2147483647,0,0,1,1,2,2,3,3,4,4,5,5],"right_children":[2,4,6,8,10,12,-1,-1,-1,-1,-1,-1,-1],"split_conditions":[1.343E0,1E0,1E0,1E0,1.219E0,1E0,-0E0,1.3534296E-3,-0E0,-1.6011893E-4,-0E0,-9.4646047E-4,-0E0],"split_indices":[0,32,16,37,0,22,0,0,0,0,0,0,0],"split_type":[0,0,0,0,0,0,0,0,0,0,0,0,0],"sum_hessian":[1.029E3,7.98E2,2.31E2,6.14E2,1.84E2,2.18E2,1.3E1,4.32E2,1.82E2,1.33E2,5.1E1,2.09E2,9E0],"tree_param":{"num_deleted":"0","num_feature":"38","num_nodes":"13","size_leaf_vector":"1"}},{"base_weights":[3.342908E-4,-0E0,2.3823087E-3,-4.0431187E-4,1.0581038E-2,-3.4069386E-4,1.7691038E-3,-0E0,3.4236622E-3],"categories":[],"categories_nodes":[],"categories_segments":[],"categories_sizes":[],"default_left":[0,0,0,0,0,0,0,0,0],"id":110,"left_children":[1,3,-1,5,7,-1,-1,-1,-1],"loss_changes":[3.8872017E-3,3.6509135E-3,0E0,3.7397686E-3,1.4112517E-3,0E0,0E0,0E0,0E0],"parents":[2147483647,0,0,1,1,3,3,4,4],"right_children":[2,4,-1,6,8,-1,-1,-1,-1],"split_conditions":[1E0,1E0,2.3823087E-3,1E0,2.194E1,-3.4069386E-4,1.7691038E-3,-0E0,3.4236622E-3],"split_indices":[23,12,0,24,1,0,0,0,0],"split_type":[0,0,0,0,0,0,0,0,0],"sum_hessian":[1.057E3,1.013E3,4.4E1,9.82E2,3.1E1,9.39E2,4.3E1,5E0,2.6E1],"tree_param":{"num_deleted":"0","num_feature":"38","num_nodes":"9","size_leaf_vector":"1"}},{"base_weights":[3.5739917E-4,-0E0,2.2586067E-3,-3.1583034E-4,7.4561606E-3,-3.1509963E-4,1.8953875E-3,2.3239704E-3,-0E0],"categories":[],"categories_nodes":[],"categories_segments":[],"categories_sizes":[],"default_left":[0,0,0,0,0,0,0,0,0],"id":111,"left_children":[1,3,-1,5,7,-1,-1,-1,-1],"loss_changes":[2.9769288E-3,2.6080767E-3,0E0,3.5698705E-3,6.960954E-4,0E0,0E0,0E0,0E0],"parents":[2147483647,0,0,1,1,3,3,4,4],"right_children":[2,4,-1,6,8,-1,-1,-1,-1],"split_conditions":[1E0,1E0,2.2586067E-3,1E0,1E0,-3.1509963E-4,1.8953875E-3,2.3239704E-3,-0E0],"split_indices":[22,9,0,24,30,0,0,0,0],"split_type":[0,0,0,0,0,0,0,0,0],"sum_hessian":[1.051E3,1.013E3,3.8E1,9.68E2,4.5E1,9.3E2,3.8E1,3.7E1,8E0],"tree_param":{"num_deleted":"0","num_feature":"38","num_nodes":"9","size_leaf_vector":"1"}},